t_s,gx,gy,gz,ax,ay,az,roll_ref_deg,pitch_ref_deg
0.000000,0.018721,-0.007443,-0.001130,-0.003151,-0.009300,0.997867,0.0000,0.0000
0.010000,0.025560,-0.007879,0.005184,0.002489,0.003948,1.001853,0.0000,0.0000
0.020000,0.011670,-0.005724,0.002532,0.004988,-0.016914,0.982561,0.0000,0.0000
0.030000,0.015552,-0.012341,0.001527,-0.000459,0.005210,0.993578,0.0000,0.0000
0.040000,0.021544,-0.008029,-0.003306,0.017175,0.005566,1.011970,0.0000,0.0000
0.050000,0.016898,-0.013698,-0.001720,-0.001064,0.006321,1.002484,0.0000,0.0000
0.060000,0.017763,-0.014785,-0.002603,0.012209,-0.008079,1.002448,0.0000,0.0000
0.070000,0.022133,-0.017449,0.000242,0.013062,-0.020144,0.996784,0.0000,0.0000
0.080000,0.019469,-0.014086,0.002487,-0.000623,-0.014647,1.008278,0.0000,0.0000
0.090000,0.023347,-0.005271,0.007203,0.003622,0.001193,0.987008,0.0000,0.0000
0.100000,0.023077,-0.013059,-0.002264,-0.012648,-0.009676,0.994689,0.0000,0.0000
0.110000,0.026444,-0.020159,-0.007289,0.002394,0.014433,1.005785,0.0000,0.0000
0.120000,0.010500,-0.022591,0.001787,-0.007363,-0.011198,1.009774,0.0000,0.0000
0.130000,0.025509,-0.009214,0.001229,0.004344,0.015940,1.006190,0.0000,0.0000
0.140000,0.022593,-0.007261,-0.007842,0.012817,0.009551,1.005296,0.0000,0.0000
0.150000,0.010131,-0.013168,0.004212,-0.018112,-0.001840,1.010195,0.0000,0.0000
0.160000,0.013444,-0.001949,0.002760,-0.001501,0.003249,1.006498,0.0000,0.0000
0.170000,0.020602,-0.004272,-0.003308,-0.004147,0.010417,1.000268,0.0000,0.0000
0.180000,0.015598,-0.005268,0.007327,-0.004448,-0.013800,0.998653,0.0000,0.0000
0.190000,0.019255,-0.011490,0.007024,-0.010269,0.012606,0.987317,0.0000,0.0000
0.200000,0.016065,-0.006842,0.005643,0.008590,0.003452,1.001424,0.0000,0.0000
0.210000,0.020762,-0.007124,-0.000881,0.002774,0.005727,1.000008,0.0000,0.0000
0.220000,0.023820,-0.007171,0.010053,0.003249,-0.004276,0.996274,0.0000,0.0000
0.230000,0.019934,-0.005381,-0.001683,0.003858,0.018373,0.974353,0.0000,0.0000
0.240000,0.014380,-0.008781,0.001992,0.002386,-0.004312,1.006551,0.0000,0.0000
0.250000,0.021411,-0.012610,0.012150,0.003551,-0.005542,0.999006,0.0000,0.0000
0.260000,0.018872,-0.010314,-0.013640,-0.004869,0.010086,0.988314,0.0000,0.0000
0.270000,0.019666,-0.005232,0.004281,0.014911,-0.017014,0.996466,0.0000,0.0000
0.280000,0.018295,-0.006884,0.005459,-0.026828,0.010887,0.985525,0.0000,0.0000
0.290000,0.023416,-0.017461,0.000879,0.011947,-0.001493,1.001911,0.0000,0.0000
0.300000,0.023986,-0.009293,-0.000442,0.015333,0.010485,0.997062,0.0000,0.0000
0.310000,0.033727,-0.015734,0.004573,-0.002657,0.001324,1.007050,0.0000,0.0000
0.320000,0.021111,-0.006807,-0.007637,-0.015095,0.006149,0.990368,0.0000,0.0000
0.330000,0.014867,-0.017351,0.006332,0.007466,0.014731,0.990623,0.0000,0.0000
0.340000,0.020005,-0.015702,0.003830,0.015894,-0.008902,1.015603,0.0000,0.0000
0.350000,0.024940,-0.010889,-0.009860,0.014066,-0.000963,0.993972,0.0000,0.0000
0.360000,0.021998,-0.007950,0.007490,-0.010201,0.011362,1.014874,0.0000,0.0000
0.370000,0.027261,-0.010903,-0.003720,0.010186,0.001152,1.001242,0.0000,0.0000
0.380000,0.027121,-0.011317,-0.011484,-0.003872,-0.018539,1.008188,0.0000,0.0000
0.390000,0.021585,-0.013056,-0.000048,0.008326,0.000789,1.013265,0.0000,0.0000
0.400000,0.019694,-0.004798,0.007457,0.016099,-0.006718,1.008799,0.0000,0.0000
0.410000,0.010620,-0.015417,-0.009814,0.010690,-0.012319,0.999872,0.0000,0.0000
0.420000,0.019039,-0.010143,-0.002958,0.002337,0.017913,1.000443,0.0000,0.0000
0.430000,0.022655,-0.004997,-0.000990,-0.012597,-0.005554,1.010736,0.0000,0.0000
0.440000,0.011769,-0.012989,0.005037,0.007927,0.000076,1.008052,0.0000,0.0000
0.450000,0.020830,-0.015895,-0.007820,-0.006390,0.009227,0.994345,0.0000,0.0000
0.460000,0.015488,-0.013855,-0.007659,-0.001173,-0.011796,1.003641,0.0000,0.0000
0.470000,0.008200,-0.008361,-0.003208,-0.019421,0.007247,0.997245,0.0000,0.0000
0.480000,0.008850,-0.014375,0.001455,-0.004586,0.007800,1.007476,0.0000,0.0000
0.490000,0.023331,-0.008367,0.006668,0.006598,0.004512,0.979160,0.0000,0.0000
0.500000,0.024483,-0.003453,-0.001484,-0.004695,0.019403,0.982419,0.0000,0.0000
0.510000,0.022344,0.002119,-0.004638,0.006896,0.018864,0.998798,0.0000,0.0000
0.520000,0.022806,-0.005487,-0.004529,-0.000891,0.002928,1.008254,0.0000,0.0000
0.530000,0.019827,-0.010977,-0.005080,-0.003590,0.008917,1.001017,0.0000,0.0000
0.540000,0.015735,-0.014208,0.013333,0.011399,0.006374,0.974071,0.0000,0.0000
0.550000,0.023107,-0.007597,0.008420,0.004278,-0.000675,1.005224,0.0000,0.0000
0.560000,0.010279,-0.004834,0.001624,-0.007021,0.013256,1.018093,0.0000,0.0000
0.570000,0.012988,-0.013332,0.001456,0.001835,-0.003985,0.990258,0.0000,0.0000
0.580000,0.030602,-0.004813,-0.005971,-0.013450,0.017031,1.009891,0.0000,0.0000
0.590000,0.029105,-0.005949,-0.004360,0.002607,-0.021601,0.992519,0.0000,0.0000
0.600000,0.019705,-0.007386,-0.003638,-0.001242,0.004585,1.003767,0.0000,0.0000
0.610000,0.023190,-0.008955,-0.001620,0.007892,0.000494,0.991739,0.0000,0.0000
0.620000,0.016870,-0.010002,-0.000548,0.001570,-0.000005,1.001759,0.0000,0.0000
0.630000,0.019329,-0.016292,0.002107,0.010537,0.004346,0.998108,0.0000,0.0000
0.640000,0.022232,-0.014829,-0.009481,0.000596,-0.009305,1.007399,0.0000,0.0000
0.650000,0.014580,-0.023143,-0.005198,0.015781,-0.003818,0.986306,0.0000,0.0000
0.660000,0.016183,-0.007396,0.002484,0.001767,0.014839,1.007065,0.0000,0.0000
0.670000,0.019895,-0.007017,0.008273,0.009713,0.010238,0.989172,0.0000,0.0000
0.680000,0.019258,-0.006351,-0.001482,0.010689,0.005963,1.009083,0.0000,0.0000
0.690000,0.018938,0.002732,0.006200,-0.002154,0.000906,1.025952,0.0000,0.0000
0.700000,0.018284,-0.005629,0.004902,0.000066,-0.011671,1.001875,0.0000,0.0000
0.710000,0.021797,-0.004352,0.003914,0.000244,0.008536,1.005398,0.0000,0.0000
0.720000,0.021030,-0.009724,-0.001217,0.006862,-0.010542,0.993713,0.0000,0.0000
0.730000,0.020025,-0.017320,-0.002179,-0.020088,-0.006829,1.005684,0.0000,0.0000
0.740000,0.022832,-0.010273,-0.001161,-0.014168,0.018278,1.005160,0.0000,0.0000
0.750000,0.025467,-0.014412,-0.000926,-0.018195,0.007805,1.009351,0.0000,0.0000
0.760000,0.010513,-0.010261,0.003152,-0.017620,-0.018254,0.989349,0.0000,0.0000
0.770000,0.016854,-0.017014,0.000158,0.002496,0.006340,1.007020,0.0000,0.0000
0.780000,0.027513,-0.004178,-0.006559,-0.005054,-0.010602,0.989234,0.0000,0.0000
0.790000,0.019594,-0.009973,0.002452,-0.015869,-0.012376,0.999769,0.0000,0.0000
0.800000,0.019003,-0.011556,-0.000316,-0.007598,0.007013,1.003543,0.0000,0.0000
0.810000,0.019561,-0.013360,-0.000871,-0.027216,-0.009813,1.000373,0.0000,0.0000
0.820000,0.012480,-0.009002,0.000737,-0.013775,-0.002506,0.996862,0.0000,0.0000
0.830000,0.022299,-0.006941,-0.000182,-0.008513,-0.001443,0.999346,0.0000,0.0000
0.840000,0.023672,-0.008528,-0.003613,-0.013544,-0.003731,0.992596,0.0000,0.0000
0.850000,0.014441,-0.010580,-0.002455,0.001054,0.005233,0.995870,0.0000,0.0000
0.860000,0.031621,-0.011607,0.005509,0.001217,0.011162,0.976241,0.0000,0.0000
0.870000,0.016243,-0.008765,0.003012,0.023365,0.003225,1.012798,0.0000,0.0000
0.880000,0.023832,-0.005263,0.002550,-0.001561,0.005091,0.989219,0.0000,0.0000
0.890000,0.025907,-0.015086,0.001246,0.021208,-0.002234,1.000195,0.0000,0.0000
0.900000,0.025815,-0.009869,-0.004038,0.002582,0.005821,1.007101,0.0000,0.0000
0.910000,0.016137,-0.001237,0.008334,0.000182,0.002686,0.995715,0.0000,0.0000
0.920000,0.027071,-0.013525,0.003370,-0.004797,-0.006940,1.007187,0.0000,0.0000
0.930000,0.026669,-0.010051,-0.003387,0.008115,-0.000495,1.003106,0.0000,0.0000
0.940000,0.027614,-0.004342,-0.002599,0.022836,0.000033,1.007860,0.0000,0.0000
0.950000,0.016763,-0.010223,-0.008750,0.017867,0.013657,0.987847,0.0000,0.0000
0.960000,0.012474,-0.018105,0.005879,-0.004595,-0.000605,0.996872,0.0000,0.0000
0.970000,0.019394,-0.015441,0.000121,-0.014380,-0.000715,1.003087,0.0000,0.0000
0.980000,0.022338,-0.011159,-0.004519,0.001596,-0.004846,1.015658,0.0000,0.0000
0.990000,0.023839,-0.010576,-0.002356,-0.007027,-0.009372,0.996471,0.0000,0.0000
1.000000,0.021474,-0.007422,0.002844,0.020987,-0.007049,1.000130,0.0000,0.0000
1.010000,0.033973,-0.019335,-0.002607,0.001696,0.001544,1.004079,0.0000,0.0000
1.020000,0.018806,-0.008169,0.000264,0.007714,-0.018926,0.991150,0.0000,0.0000
1.030000,0.019989,-0.015159,-0.005223,0.006277,-0.006500,1.006349,0.0000,0.0000
1.040000,0.023729,-0.008468,0.002540,-0.001046,-0.014091,0.999699,0.0000,0.0000
1.050000,0.022271,-0.012647,-0.000498,0.007492,-0.008781,1.006400,0.0000,0.0000
1.060000,0.029313,-0.012773,0.000733,-0.001505,0.015402,1.003164,0.0000,0.0000
1.070000,0.024489,-0.013450,-0.000081,-0.000098,-0.017759,1.014408,0.0000,0.0000
1.080000,0.024497,-0.018746,0.003722,-0.001312,0.004484,1.003665,0.0000,0.0000
1.090000,0.012505,-0.011060,0.007463,-0.005749,-0.010228,0.986404,0.0000,0.0000
1.100000,0.013894,-0.008322,0.008463,0.004294,0.002455,1.022336,0.0000,0.0000
1.110000,0.017403,-0.013370,0.002642,0.005485,-0.010147,0.988300,0.0000,0.0000
1.120000,0.021455,-0.008763,-0.006534,-0.002022,-0.005427,1.004601,0.0000,0.0000
1.130000,0.019416,-0.010430,-0.001767,0.010536,0.013908,0.996330,0.0000,0.0000
1.140000,0.024231,-0.013788,0.000360,0.007499,0.015142,0.996174,0.0000,0.0000
1.150000,0.019630,-0.009018,-0.007491,0.000159,-0.006759,1.003715,0.0000,0.0000
1.160000,0.014350,-0.019884,0.000191,0.002606,-0.005489,1.008888,0.0000,0.0000
1.170000,0.018634,-0.013028,0.002389,-0.015682,-0.006775,0.999792,0.0000,0.0000
1.180000,0.024244,-0.010814,0.001542,-0.006555,0.003017,1.016635,0.0000,0.0000
1.190000,0.016568,0.001831,-0.003219,0.000171,0.001733,1.010243,0.0000,0.0000
1.200000,0.013815,-0.020503,0.003030,0.007954,0.006237,1.026305,0.0000,0.0000
1.210000,0.021025,-0.008731,0.004646,0.003688,0.016637,0.987617,0.0000,0.0000
1.220000,0.018123,-0.027224,0.004062,-0.003724,0.009240,1.021541,0.0000,0.0000
1.230000,0.019970,-0.011273,-0.002498,-0.008379,-0.006304,1.006393,0.0000,0.0000
1.240000,0.020184,-0.009669,-0.000866,0.009144,0.004940,0.998582,0.0000,0.0000
1.250000,0.023324,-0.010759,-0.005765,0.014553,0.004653,0.990427,0.0000,0.0000
1.260000,0.025394,-0.008275,-0.007822,0.016099,0.003335,1.008914,0.0000,0.0000
1.270000,0.020989,-0.010748,-0.007741,0.009716,0.000301,0.997135,0.0000,0.0000
1.280000,0.021755,-0.009609,0.003378,-0.003710,-0.000365,0.978611,0.0000,0.0000
1.290000,0.017883,-0.006621,0.006684,-0.003640,-0.001213,1.015835,0.0000,0.0000
1.300000,0.018371,-0.006330,0.008392,0.000398,0.012269,0.992895,0.0000,0.0000
1.310000,0.021038,-0.010387,0.000575,0.011297,0.023899,0.993345,0.0000,0.0000
1.320000,0.017124,-0.007513,-0.005276,0.004970,0.005719,0.997225,0.0000,0.0000
1.330000,0.022656,-0.017747,0.003799,-0.015448,-0.006964,0.994438,0.0000,0.0000
1.340000,0.017994,-0.005706,0.000408,-0.003974,0.005435,1.015813,0.0000,0.0000
1.350000,0.020031,-0.008171,0.006198,0.002678,-0.012838,1.024903,0.0000,0.0000
1.360000,0.031042,-0.019924,-0.000196,0.004173,0.009657,1.006690,0.0000,0.0000
1.370000,0.018639,-0.015269,0.000515,0.010334,-0.010896,0.989728,0.0000,0.0000
1.380000,0.019877,-0.019687,-0.001301,-0.004365,0.004508,0.992982,0.0000,0.0000
1.390000,0.015589,-0.011971,-0.000250,-0.006647,0.000121,1.007502,0.0000,0.0000
1.400000,0.025926,-0.001475,-0.003917,-0.004198,-0.024829,1.018993,0.0000,0.0000
1.410000,0.016376,-0.010167,0.002613,-0.013586,0.004639,0.999736,0.0000,0.0000
1.420000,0.010870,-0.008540,0.005973,-0.018678,0.008072,1.002092,0.0000,0.0000
1.430000,0.022374,-0.007792,0.006520,-0.002236,0.008736,0.995901,0.0000,0.0000
1.440000,0.023640,-0.014070,-0.000542,0.017310,0.004456,0.998418,0.0000,0.0000
1.450000,0.014276,-0.013951,0.000968,0.009394,0.004261,1.005241,0.0000,0.0000
1.460000,0.019791,-0.003240,-0.001954,-0.005497,0.008881,1.000636,0.0000,0.0000
1.470000,0.018607,-0.012881,-0.001284,0.006236,0.003537,0.987904,0.0000,0.0000
1.480000,0.022132,-0.009105,-0.005001,0.007728,-0.002804,0.996646,0.0000,0.0000
1.490000,0.023979,-0.003397,-0.003443,0.004383,-0.008761,1.023143,0.0000,0.0000
1.500000,0.017531,-0.004025,-0.003237,0.008113,0.022189,0.974590,0.0000,0.0000
1.510000,0.017828,-0.007497,-0.000464,-0.006685,0.021521,1.000795,0.0000,0.0000
1.520000,0.011778,-0.005729,-0.008608,0.011508,-0.005778,1.001448,0.0000,0.0000
1.530000,0.026305,-0.009411,-0.006955,-0.016959,0.011826,1.007404,0.0000,0.0000
1.540000,0.015921,-0.005702,0.002483,0.006477,-0.022589,0.996979,0.0000,0.0000
1.550000,0.024502,-0.006333,0.004407,-0.024573,0.001691,1.004922,0.0000,0.0000
1.560000,0.032760,-0.014769,-0.001646,0.000359,0.008861,0.995567,0.0000,0.0000
1.570000,0.025736,-0.013940,0.001334,-0.005274,0.001582,0.993092,0.0000,0.0000
1.580000,0.012014,-0.004535,0.001517,-0.005586,0.002009,1.009902,0.0000,0.0000
1.590000,0.015113,-0.010552,0.002696,0.005262,-0.003353,0.978930,0.0000,0.0000
1.600000,0.026215,-0.008359,0.000065,-0.002785,0.002634,0.995744,0.0000,0.0000
1.610000,0.014877,-0.013699,-0.002984,-0.006124,-0.011587,1.006363,0.0000,0.0000
1.620000,0.013451,-0.006701,-0.005073,0.003525,0.013741,1.002033,0.0000,0.0000
1.630000,0.016346,-0.009759,0.000741,-0.017338,-0.006077,1.001630,0.0000,0.0000
1.640000,0.017654,-0.009601,0.003670,0.007666,0.009057,1.005885,0.0000,0.0000
1.650000,0.018560,-0.010092,-0.001356,-0.003132,-0.001797,0.982753,0.0000,0.0000
1.660000,0.018334,-0.010120,-0.004870,-0.000240,0.005155,0.998356,0.0000,0.0000
1.670000,0.030383,-0.023032,-0.001032,-0.018254,0.009800,1.026541,0.0000,0.0000
1.680000,0.007490,-0.009360,0.002595,-0.003024,0.005516,0.977570,0.0000,0.0000
1.690000,0.024260,-0.008140,0.000114,-0.005876,0.006384,0.995146,0.0000,0.0000
1.700000,0.021116,-0.012550,-0.011234,-0.000313,0.002022,1.007544,0.0000,0.0000
1.710000,0.015620,-0.010165,0.003086,0.001454,0.012425,1.019917,0.0000,0.0000
1.720000,0.015457,-0.019605,0.004283,0.015294,0.009223,1.008139,0.0000,0.0000
1.730000,0.016907,-0.013568,0.004442,-0.009116,-0.018133,0.990025,0.0000,0.0000
1.740000,0.032461,-0.000383,-0.003432,-0.007290,0.002314,0.992506,0.0000,0.0000
1.750000,0.026550,-0.010392,-0.005432,0.013089,-0.005831,1.002213,0.0000,0.0000
1.760000,0.019937,-0.011572,0.001625,-0.006925,-0.018445,0.977920,0.0000,0.0000
1.770000,0.013667,-0.013792,-0.000115,0.000553,0.005560,1.001199,0.0000,0.0000
1.780000,0.016033,-0.013544,-0.010594,-0.001691,0.004849,1.005297,0.0000,0.0000
1.790000,0.019393,-0.010871,0.004681,0.000154,0.007378,1.005825,0.0000,0.0000
1.800000,0.021066,-0.003468,-0.002863,-0.003589,-0.008080,0.992028,0.0000,0.0000
1.810000,0.027780,-0.001203,0.000115,0.005682,0.011753,1.008075,0.0000,0.0000
1.820000,0.026027,-0.016315,-0.003197,0.004527,0.014353,1.001039,0.0000,0.0000
1.830000,0.015708,-0.011773,-0.003303,-0.008583,0.015012,0.993744,0.0000,0.0000
1.840000,0.020102,0.000812,0.005924,0.003362,-0.006119,1.004103,0.0000,0.0000
1.850000,0.028108,-0.006885,0.006308,0.000981,0.005163,0.997990,0.0000,0.0000
1.860000,0.022134,-0.003498,-0.007156,-0.000625,0.002403,0.994289,0.0000,0.0000
1.870000,0.018460,-0.006065,0.010008,0.006295,0.003261,0.984486,0.0000,0.0000
1.880000,0.029638,-0.009615,-0.000169,-0.011184,-0.000568,0.989039,0.0000,0.0000
1.890000,0.020355,-0.007668,0.000156,0.002797,-0.008518,1.014298,0.0000,0.0000
1.900000,0.016734,-0.019092,-0.000938,-0.007637,-0.010098,0.996451,0.0000,0.0000
1.910000,0.021456,-0.015909,-0.000688,0.014267,0.006827,0.998480,0.0000,0.0000
1.920000,0.020639,-0.010599,-0.000239,0.007324,-0.000925,0.975956,0.0000,0.0000
1.930000,0.019892,-0.014447,0.003256,-0.006103,0.001484,1.021773,0.0000,0.0000
1.940000,0.014766,-0.015623,-0.007058,-0.023949,-0.018785,1.003645,0.0000,0.0000
1.950000,0.016810,-0.019341,-0.007413,0.006173,-0.007753,0.996332,0.0000,0.0000
1.960000,0.021652,-0.003218,0.009705,0.010324,0.001436,1.001842,0.0000,0.0000
1.970000,0.029011,-0.002857,-0.001553,0.004577,0.002869,1.000524,0.0000,0.0000
1.980000,0.017500,-0.016632,-0.002670,-0.015441,0.012238,1.005366,0.0000,0.0000
1.990000,0.013970,-0.003021,0.004459,-0.019086,0.018414,1.008099,0.0000,0.0000
2.000000,0.030321,-0.016156,0.002654,0.004231,0.002019,1.001712,0.0000,0.0000
2.010000,0.025267,-0.017472,-0.006210,-0.013942,-0.005577,0.993945,0.0000,0.0000
2.020000,0.021837,-0.008668,0.000157,-0.006766,-0.004419,1.009525,0.0000,0.0000
2.030000,0.023818,-0.009495,-0.001613,0.015530,-0.005941,1.006487,0.0000,0.0000
2.040000,0.025768,-0.011327,0.004127,-0.011157,0.010126,1.001996,0.0000,0.0000
2.050000,0.012067,-0.006652,-0.004461,0.012818,-0.006790,0.998353,0.0000,0.0000
2.060000,0.021415,-0.011662,0.001298,-0.005533,0.006718,1.000055,0.0000,0.0000
2.070000,0.021055,-0.023763,0.005807,0.000318,-0.017826,1.000955,0.0000,0.0000
2.080000,0.022336,-0.004646,-0.005414,0.015470,-0.001594,1.023947,0.0000,0.0000
2.090000,0.019269,-0.006601,-0.001833,-0.011159,0.010967,1.009063,0.0000,0.0000
2.100000,0.027693,-0.005715,-0.002866,-0.016625,-0.006506,0.993250,0.0000,0.0000
2.110000,0.015924,-0.007088,0.001639,-0.002698,0.001726,0.998544,0.0000,0.0000
2.120000,0.021064,-0.006240,0.004797,-0.006859,-0.015068,1.014274,0.0000,0.0000
2.130000,0.020573,-0.004471,-0.008216,-0.003300,0.000271,0.985585,0.0000,0.0000
2.140000,0.017421,-0.006378,0.005393,0.015941,-0.008636,0.985987,0.0000,0.0000
2.150000,0.022602,-0.005298,0.000965,-0.013015,0.007821,1.007926,0.0000,0.0000
2.160000,0.022767,-0.012435,0.001520,0.007907,-0.005588,0.981563,0.0000,0.0000
2.170000,0.021643,-0.007596,0.000068,0.008891,-0.005866,0.999177,0.0000,0.0000
2.180000,0.018474,-0.007143,0.007978,-0.002512,0.020550,1.015290,0.0000,0.0000
2.190000,0.023953,-0.007065,0.008854,-0.001805,-0.001120,0.989374,0.0000,0.0000
2.200000,0.022364,-0.003276,0.002662,0.004231,-0.002007,1.001696,0.0000,0.0000
2.210000,0.012875,-0.004756,-0.002050,-0.011046,-0.007514,0.991754,0.0000,0.0000
2.220000,0.024276,-0.004709,-0.006789,0.009263,0.008881,0.994207,0.0000,0.0000
2.230000,0.012567,-0.013727,-0.003169,0.003425,-0.003577,0.979717,0.0000,0.0000
2.240000,0.021168,-0.017671,0.004527,-0.012068,-0.006929,0.991457,0.0000,0.0000
2.250000,0.017287,-0.003510,0.004260,0.006017,0.003193,0.984522,0.0000,0.0000
2.260000,0.017397,-0.012759,-0.004887,0.005091,-0.007411,0.992902,0.0000,0.0000
2.270000,0.014778,-0.020288,0.002976,0.013308,0.001748,0.990234,0.0000,0.0000
2.280000,0.006474,-0.009135,0.006081,0.002972,0.009271,1.014782,0.0000,0.0000
2.290000,0.025634,-0.012207,0.005262,0.007757,-0.015370,0.995947,0.0000,0.0000
2.300000,0.012881,-0.010546,0.002891,-0.010680,-0.020558,1.012983,0.0000,0.0000
2.310000,0.021884,-0.002644,-0.006618,0.010606,0.020739,1.020071,0.0000,0.0000
2.320000,0.018950,-0.008654,-0.000770,0.009984,0.010378,1.000870,0.0000,0.0000
2.330000,0.013205,-0.006295,-0.002349,0.006288,0.002632,1.016237,0.0000,0.0000
2.340000,0.025688,-0.012255,0.001745,0.017641,-0.005373,1.004334,0.0000,0.0000
2.350000,0.025954,-0.003716,0.002593,-0.013202,-0.012610,1.002475,0.0000,0.0000
2.360000,0.021937,0.002739,-0.004307,0.011378,0.007704,0.983285,0.0000,0.0000
2.370000,0.015909,-0.009169,-0.002468,-0.001544,0.004701,0.991906,0.0000,0.0000
2.380000,0.022332,-0.013181,-0.002723,0.005368,-0.005734,1.002872,0.0000,0.0000
2.390000,0.027997,-0.009865,-0.000730,0.007353,-0.003656,1.010828,0.0000,0.0000
2.400000,0.013586,-0.006907,-0.002560,-0.007987,0.017697,0.991499,0.0000,0.0000
2.410000,0.028784,-0.006709,0.007265,-0.009768,0.011989,1.014568,0.0000,0.0000
2.420000,0.019418,-0.010645,0.012280,0.001774,-0.004226,0.993700,0.0000,0.0000
2.430000,0.022229,-0.008348,0.000888,0.017215,-0.003279,1.004731,0.0000,0.0000
2.440000,0.027296,-0.015020,0.005193,0.018321,-0.013548,0.989025,0.0000,0.0000
2.450000,0.014808,-0.019231,0.002264,-0.018562,0.004988,1.014531,0.0000,0.0000
2.460000,0.011924,-0.011582,-0.009590,0.007792,-0.007374,0.997342,0.0000,0.0000
2.470000,0.020272,-0.007274,-0.001734,0.000151,-0.005466,1.001147,0.0000,0.0000
2.480000,0.014137,-0.009682,-0.009661,-0.004902,0.019153,1.000796,0.0000,0.0000
2.490000,0.013700,-0.008714,-0.004862,-0.016513,-0.007365,1.007369,0.0000,0.0000
2.500000,0.021919,-0.010485,-0.004633,-0.010786,0.013497,1.002446,0.0000,0.0000
2.510000,0.015241,-0.020555,-0.006850,0.024751,-0.011489,0.999232,0.0000,0.0000
2.520000,0.021050,-0.010788,-0.001391,-0.013732,-0.010511,1.016887,0.0000,0.0000
2.530000,0.016218,-0.005773,-0.008469,-0.002742,0.002611,1.010365,0.0000,0.0000
2.540000,0.014387,-0.007023,0.001930,-0.007377,0.004772,0.991020,0.0000,0.0000
2.550000,0.016020,-0.010094,-0.013570,-0.001096,-0.010001,0.985372,0.0000,0.0000
2.560000,0.017875,-0.006185,-0.002022,0.012659,-0.011596,0.986877,0.0000,0.0000
2.570000,0.027756,-0.008006,0.004725,-0.008268,0.008044,1.002597,0.0000,0.0000
2.580000,0.023243,-0.009873,0.006031,-0.006491,-0.009638,0.985224,0.0000,0.0000
2.590000,0.025803,-0.013692,-0.005216,-0.009397,-0.004451,0.987287,0.0000,0.0000
2.600000,0.018548,-0.013136,-0.002756,-0.009595,0.000368,0.995391,0.0000,0.0000
2.610000,0.020574,-0.008753,0.001701,-0.021893,-0.005357,0.992041,0.0000,0.0000
2.620000,0.023871,-0.017888,-0.003572,-0.002939,-0.003362,1.009913,0.0000,0.0000
2.630000,0.017786,-0.005177,-0.007328,-0.018122,0.012193,1.004357,0.0000,0.0000
2.640000,0.022439,-0.009384,0.002422,-0.012158,0.009485,0.994679,0.0000,0.0000
2.650000,0.024928,-0.009561,-0.009869,-0.012871,0.011277,0.998632,0.0000,0.0000
2.660000,0.018023,-0.008787,-0.002125,-0.005445,0.001024,1.001443,0.0000,0.0000
2.670000,0.027584,-0.009772,0.009399,0.018027,0.017166,1.010615,0.0000,0.0000
2.680000,0.020653,-0.009314,-0.000713,-0.007311,-0.000664,0.993592,0.0000,0.0000
2.690000,0.028199,-0.007328,-0.002233,-0.019156,-0.000533,0.995837,0.0000,0.0000
2.700000,0.014571,-0.015682,-0.011251,0.005690,-0.000657,1.025810,0.0000,0.0000
2.710000,0.019845,-0.010741,0.007221,0.001340,0.001673,0.996284,0.0000,0.0000
2.720000,0.016974,-0.002503,0.005002,0.017161,-0.003498,1.000301,0.0000,0.0000
2.730000,0.015596,-0.005164,-0.006966,0.005645,0.010960,1.014112,0.0000,0.0000
2.740000,0.015301,-0.004552,-0.003568,-0.007571,-0.013231,1.011556,0.0000,0.0000
2.750000,0.028242,-0.012972,-0.003797,-0.003390,0.025073,1.010044,0.0000,0.0000
2.760000,0.017287,-0.018971,-0.003363,0.011872,0.018677,0.997336,0.0000,0.0000
2.770000,0.016543,-0.012550,-0.009428,0.009082,-0.010858,1.010632,0.0000,0.0000
2.780000,0.011462,-0.016350,0.001442,-0.007636,0.007813,1.000083,0.0000,0.0000
2.790000,0.014126,-0.006890,0.004210,-0.019130,0.018262,1.004971,0.0000,0.0000
2.800000,0.023801,-0.019300,-0.003599,-0.003493,0.010771,0.985404,0.0000,0.0000
2.810000,0.015581,-0.020149,-0.001205,0.003460,-0.016862,0.994087,0.0000,0.0000
2.820000,0.022552,-0.002073,0.003320,-0.003037,-0.011779,0.990636,0.0000,0.0000
2.830000,0.016679,-0.009265,-0.000248,0.016671,0.002872,0.989282,0.0000,0.0000
2.840000,0.027722,-0.005255,0.000505,-0.007211,-0.018708,0.989778,0.0000,0.0000
2.850000,0.024558,-0.014014,-0.006599,0.001956,0.002438,1.006064,0.0000,0.0000
2.860000,0.023278,-0.002955,-0.004197,0.009786,-0.009873,1.006940,0.0000,0.0000
2.870000,0.020895,-0.008784,0.004839,-0.000174,0.011123,1.008754,0.0000,0.0000
2.880000,0.020677,-0.012834,-0.003767,-0.005275,-0.002024,0.999751,0.0000,0.0000
2.890000,0.034904,-0.006808,0.003846,-0.008606,-0.007104,0.996809,0.0000,0.0000
2.900000,0.020961,-0.015180,0.008060,-0.005632,0.010783,0.976641,0.0000,0.0000
2.910000,0.019965,-0.008611,0.000957,0.006017,0.002799,1.001623,0.0000,0.0000
2.920000,0.010537,-0.013567,-0.011713,0.006285,0.003074,0.998047,0.0000,0.0000
2.930000,0.015893,-0.012908,0.009227,0.017312,-0.000583,1.012880,0.0000,0.0000
2.940000,0.012060,-0.019676,-0.002415,-0.008750,-0.005592,1.001881,0.0000,0.0000
2.950000,0.035125,-0.013304,0.000248,0.002763,-0.000343,1.009309,0.0000,0.0000
2.960000,0.028877,-0.016218,0.000809,-0.002650,0.003563,0.984683,0.0000,0.0000
2.970000,0.011210,-0.021583,0.002627,0.001920,0.000736,0.976334,0.0000,0.0000
2.980000,0.018132,-0.013776,-0.007069,-0.009155,0.006977,1.005441,0.0000,0.0000
2.990000,0.019887,-0.007428,-0.003017,0.000712,0.000403,1.005544,0.0000,0.0000
3.000000,0.019650,-0.010716,-0.000674,-0.006449,0.022336,1.005142,0.0000,0.0000
3.010000,0.022145,0.001458,0.007015,-0.015565,0.006953,1.008380,0.0000,0.0000
3.020000,0.029425,-0.003422,0.003853,-0.011772,-0.008707,1.002689,0.0000,0.0000
3.030000,0.022525,-0.015108,-0.001923,-0.004003,0.000606,1.003363,0.0000,0.0000
3.040000,0.018566,-0.016184,0.006213,0.015960,-0.001059,1.010247,0.0000,0.0000
3.050000,0.022221,-0.006702,0.002407,-0.007633,0.005739,1.010106,0.0000,0.0000
3.060000,0.015519,-0.000169,0.010449,0.018231,0.019892,1.007424,0.0000,0.0000
3.070000,0.018308,-0.013000,-0.004065,0.001159,-0.000328,1.006703,0.0000,0.0000
3.080000,0.009901,0.001561,0.011382,-0.000274,0.006761,1.004756,0.0000,0.0000
3.090000,0.021367,-0.011044,-0.000614,-0.008245,0.001782,0.999759,0.0000,0.0000
3.100000,0.021601,-0.014276,0.000198,0.000478,0.006042,0.989367,0.0000,0.0000
3.110000,0.022097,-0.005084,0.002986,-0.003686,-0.004913,0.997637,0.0000,0.0000
3.120000,0.023646,-0.002235,-0.000790,-0.006427,0.003758,1.002043,0.0000,0.0000
3.130000,0.015460,-0.013687,-0.000508,0.006716,-0.011932,0.989818,0.0000,0.0000
3.140000,0.022495,-0.016124,0.000544,0.003522,-0.001110,0.989819,0.0000,0.0000
3.150000,0.019701,-0.011661,0.001680,-0.008388,0.010915,0.983248,0.0000,0.0000
3.160000,0.019119,-0.009961,0.004808,-0.006084,0.005459,0.994332,0.0000,0.0000
3.170000,0.023691,-0.001314,-0.002005,0.004430,-0.009274,1.009732,0.0000,0.0000
3.180000,0.026054,-0.009823,-0.005674,0.004024,0.011491,1.010896,0.0000,0.0000
3.190000,0.024066,-0.019152,-0.003399,0.014219,-0.012260,1.011314,0.0000,0.0000
3.200000,0.029412,-0.006191,0.005601,-0.003327,-0.012254,0.998972,0.0000,0.0000
3.210000,0.019006,-0.010238,0.003484,-0.001446,0.001918,1.004241,0.0000,0.0000
3.220000,0.019973,-0.000783,0.002212,0.000846,-0.002076,0.993748,0.0000,0.0000
3.230000,0.026721,-0.009250,-0.005394,-0.005624,-0.001366,0.995545,0.0000,0.0000
3.240000,0.025422,-0.015808,0.002460,0.001435,-0.011777,1.000474,0.0000,0.0000
3.250000,0.019528,-0.007493,-0.002251,0.003032,-0.016654,0.989163,0.0000,0.0000
3.260000,0.023925,-0.004792,-0.000064,-0.005990,0.010827,0.979082,0.0000,0.0000
3.270000,0.016002,-0.006639,0.003263,-0.010323,-0.018874,1.014520,0.0000,0.0000
3.280000,0.020765,-0.014481,0.000273,0.009018,-0.025918,1.011103,0.0000,0.0000
3.290000,0.023700,-0.020405,0.003854,-0.017801,0.011394,1.003985,0.0000,0.0000
3.300000,0.031262,-0.013054,0.000024,0.010473,-0.006399,0.992950,0.0000,0.0000
3.310000,0.018141,-0.010364,-0.005411,0.004842,0.005433,1.000715,0.0000,0.0000
3.320000,0.028500,-0.011638,0.006533,-0.005466,0.007558,0.980652,0.0000,0.0000
3.330000,0.020990,-0.010877,-0.002475,-0.006106,-0.003474,0.992802,0.0000,0.0000
3.340000,0.009036,-0.012981,-0.002748,-0.005243,-0.010577,0.998643,0.0000,0.0000
3.350000,0.023922,-0.011251,-0.002463,0.013575,0.009770,1.009218,0.0000,0.0000
3.360000,0.025777,-0.011636,-0.000647,0.011133,-0.005541,0.998804,0.0000,0.0000
3.370000,0.021889,-0.008136,-0.001382,0.009835,-0.001780,1.007254,0.0000,0.0000
3.380000,0.025353,-0.006704,0.003667,-0.011598,-0.013110,0.993813,0.0000,0.0000
3.390000,0.022376,-0.002496,-0.006112,0.003066,-0.008542,0.992677,0.0000,0.0000
3.400000,0.018618,-0.006542,0.001064,0.011796,-0.009856,1.008893,0.0000,0.0000
3.410000,0.024650,-0.009652,0.002386,-0.005633,-0.010900,0.995948,0.0000,0.0000
3.420000,0.016787,0.004451,-0.002425,0.016501,0.002021,1.003122,0.0000,0.0000
3.430000,0.023717,-0.013895,0.004583,0.003764,-0.015158,1.006013,0.0000,0.0000
3.440000,0.022763,-0.007737,0.007925,-0.004143,0.005119,1.007483,0.0000,0.0000
3.450000,0.015499,-0.004001,-0.007253,-0.013000,0.005224,0.989111,0.0000,0.0000
3.460000,0.019419,-0.018225,0.000346,-0.011335,0.003420,0.984674,0.0000,0.0000
3.470000,0.022243,-0.011332,0.000320,-0.000675,0.001306,0.986787,0.0000,0.0000
3.480000,0.007176,-0.009829,-0.004679,-0.004545,0.004266,0.980147,0.0000,0.0000
3.490000,0.016184,-0.013051,-0.005286,0.003268,-0.001403,0.991793,0.0000,0.0000
3.500000,0.015078,-0.005963,-0.003297,0.005851,0.004494,0.981062,0.0000,0.0000
3.510000,0.014582,-0.009985,0.001710,0.007797,0.008023,1.010342,0.0000,0.0000
3.520000,0.018131,-0.011052,0.003879,-0.004254,0.010567,0.984108,0.0000,0.0000
3.530000,0.023268,-0.010866,-0.009835,0.009798,0.003111,1.000209,0.0000,0.0000
3.540000,0.014617,-0.012327,0.007559,-0.008273,-0.034718,0.991434,0.0000,0.0000
3.550000,0.014002,-0.010660,-0.001966,-0.009123,-0.008417,1.010478,0.0000,0.0000
3.560000,0.012788,-0.000217,-0.002720,-0.010927,0.007873,1.005642,0.0000,0.0000
3.570000,0.014786,-0.006256,-0.009199,-0.009237,0.011263,0.997443,0.0000,0.0000
3.580000,0.013490,-0.007430,0.004584,-0.000223,-0.018068,0.996537,0.0000,0.0000
3.590000,0.022090,-0.006156,0.009265,-0.002527,-0.004824,0.999617,0.0000,0.0000
3.600000,0.026031,-0.014708,0.006526,-0.027490,0.007975,0.993244,0.0000,0.0000
3.610000,0.022295,-0.006558,-0.005913,-0.000864,0.002406,1.005873,0.0000,0.0000
3.620000,0.015350,-0.014958,-0.009619,0.025395,-0.001924,0.997776,0.0000,0.0000
3.630000,0.012527,-0.005350,-0.002673,0.014356,0.008519,1.000209,0.0000,0.0000
3.640000,0.023635,-0.015559,-0.001628,-0.005761,-0.012693,1.000171,0.0000,0.0000
3.650000,0.019275,-0.002823,-0.016764,-0.006721,-0.009185,0.995359,0.0000,0.0000
3.660000,0.022110,-0.007981,0.000142,-0.004741,0.004945,1.003598,0.0000,0.0000
3.670000,0.010786,-0.011311,-0.006873,-0.011816,0.001466,1.000603,0.0000,0.0000
3.680000,0.020569,-0.014378,-0.001006,-0.009127,0.003819,1.006887,0.0000,0.0000
3.690000,0.028776,-0.003670,-0.004027,-0.004578,-0.009385,1.003060,0.0000,0.0000
3.700000,0.029903,-0.006457,-0.010997,-0.012575,-0.012926,1.005151,0.0000,0.0000
3.710000,0.020006,-0.008500,0.008908,-0.008271,-0.008476,1.019658,0.0000,0.0000
3.720000,0.021712,-0.013895,-0.010144,-0.015243,-0.024444,1.000683,0.0000,0.0000
3.730000,0.020221,-0.005035,-0.000696,-0.006936,-0.007411,1.019012,0.0000,0.0000
3.740000,0.011172,-0.009131,0.000128,0.006167,-0.004046,1.004992,0.0000,0.0000
3.750000,0.024078,-0.010737,-0.002288,-0.001863,-0.009649,0.997923,0.0000,0.0000
3.760000,0.018490,-0.008949,0.006681,0.013077,-0.004453,1.006030,0.0000,0.0000
3.770000,0.021475,-0.006192,0.000107,0.002657,-0.004688,0.992154,0.0000,0.0000
3.780000,0.024360,-0.003506,0.003311,0.004358,0.002662,0.995499,0.0000,0.0000
3.790000,0.011084,-0.006683,0.000996,-0.005542,-0.009647,1.012779,0.0000,0.0000
3.800000,0.010979,-0.001191,0.003198,0.023707,-0.007178,0.999782,0.0000,0.0000
3.810000,0.017467,-0.009224,-0.001050,-0.007485,0.010749,0.992151,0.0000,0.0000
3.820000,0.017461,-0.007227,-0.002688,-0.004346,0.003560,0.996322,0.0000,0.0000
3.830000,0.013767,-0.010511,-0.001099,0.017048,-0.010970,1.009694,0.0000,0.0000
3.840000,0.016070,-0.011780,-0.001634,0.002705,0.008634,1.017499,0.0000,0.0000
3.850000,0.016818,-0.003350,0.004977,0.008126,-0.007593,1.009007,0.0000,0.0000
3.860000,0.019463,-0.008233,-0.001346,0.006641,0.011150,1.011310,0.0000,0.0000
3.870000,0.018974,-0.005023,0.007260,-0.009353,0.014722,0.986647,0.0000,0.0000
3.880000,0.022714,-0.007030,0.007414,0.002788,-0.004807,0.992032,0.0000,0.0000
3.890000,0.013744,-0.006170,-0.001185,-0.007177,0.005320,0.992351,0.0000,0.0000
3.900000,0.017816,-0.012292,0.008272,0.014628,-0.001580,0.984288,0.0000,0.0000
3.910000,0.021383,-0.009641,0.001745,0.005655,-0.003205,1.009251,0.0000,0.0000
3.920000,0.024185,-0.008947,-0.002031,-0.004807,0.006926,0.989005,0.0000,0.0000
3.930000,0.019202,-0.013750,-0.006967,0.006037,-0.000257,1.000358,0.0000,0.0000
3.940000,0.024372,-0.017470,-0.000335,0.002887,0.008323,0.989150,0.0000,0.0000
3.950000,0.023579,-0.008903,0.006779,0.011388,0.005496,1.021485,0.0000,0.0000
3.960000,0.019994,-0.012122,-0.001704,-0.009404,-0.000288,0.981216,0.0000,0.0000
3.970000,0.019578,-0.007871,0.004956,-0.003473,0.013888,0.993487,0.0000,0.0000
3.980000,0.019327,-0.019388,-0.003806,-0.007915,0.014588,1.005180,0.0000,0.0000
3.990000,0.014608,-0.007394,0.002351,-0.002281,0.000224,0.997019,0.0000,0.0000
4.000000,0.017352,-0.018655,-0.000442,0.012543,0.013984,0.997279,0.0000,0.0000
4.010000,0.016354,-0.011033,0.004382,0.003431,-0.005699,1.003535,0.0000,0.0000
4.020000,0.018994,-0.007484,-0.001989,-0.014356,0.000566,1.007417,0.0000,0.0000
4.030000,0.014599,-0.010524,0.004280,-0.003651,-0.006345,1.019793,0.0000,0.0000
4.040000,0.024043,-0.004993,-0.004607,0.015906,-0.016136,0.994951,0.0000,0.0000
4.050000,0.023602,-0.003524,-0.004525,-0.006462,0.001912,0.981235,0.0000,0.0000
4.060000,0.023109,-0.007277,-0.002175,0.005227,0.007544,1.003005,0.0000,0.0000
4.070000,0.022537,-0.002649,-0.002319,0.001571,-0.005072,1.010037,0.0000,0.0000
4.080000,0.018023,-0.007699,0.000664,0.000643,0.016641,0.999176,0.0000,0.0000
4.090000,0.026866,-0.005999,0.006390,-0.001597,0.008982,1.007318,0.0000,0.0000
4.100000,0.017029,-0.008697,-0.000622,-0.000345,0.012584,0.993036,0.0000,0.0000
4.110000,0.011872,-0.018414,-0.002186,-0.006229,0.000138,1.005462,0.0000,0.0000
4.120000,0.028499,-0.008507,0.002237,-0.007090,0.005602,1.013111,0.0000,0.0000
4.130000,0.026468,-0.019425,0.004295,0.015273,0.007969,0.985588,0.0000,0.0000
4.140000,0.018520,-0.007170,0.002002,-0.007819,-0.008579,1.009307,0.0000,0.0000
4.150000,0.013573,-0.003093,0.000097,0.002896,-0.012844,0.994262,0.0000,0.0000
4.160000,0.023317,-0.017080,0.009966,-0.013510,-0.011759,1.000415,0.0000,0.0000
4.170000,0.022317,-0.006474,-0.001785,-0.001995,-0.002271,0.994470,0.0000,0.0000
4.180000,0.007605,-0.005377,0.001207,0.001525,-0.006043,1.002414,0.0000,0.0000
4.190000,0.019937,-0.010369,0.005311,-0.016548,0.002420,0.989754,0.0000,0.0000
4.200000,0.018473,-0.002799,-0.005207,-0.000959,-0.005682,1.009122,0.0000,0.0000
4.210000,0.015296,-0.018082,0.002468,-0.003401,-0.003067,1.010377,0.0000,0.0000
4.220000,0.015737,-0.011793,0.000709,0.003971,-0.004962,1.009939,0.0000,0.0000
4.230000,0.030763,-0.011962,0.008978,-0.020258,0.013510,0.996695,0.0000,0.0000
4.240000,0.020659,-0.011631,-0.003056,-0.012269,-0.003790,1.012448,0.0000,0.0000
4.250000,0.025474,-0.011672,-0.002535,-0.006740,-0.011520,1.017321,0.0000,0.0000
4.260000,0.023186,-0.009437,-0.002359,-0.009815,0.012642,1.007499,0.0000,0.0000
4.270000,0.015427,-0.005251,-0.005315,0.006163,-0.009226,0.996020,0.0000,0.0000
4.280000,0.022376,-0.007925,0.004856,-0.008035,0.015157,1.012908,0.0000,0.0000
4.290000,0.019951,-0.007767,-0.003735,-0.001463,-0.012679,1.000856,0.0000,0.0000
4.300000,0.020957,-0.003550,0.004549,0.007822,-0.003474,0.997842,0.0000,0.0000
4.310000,0.018364,-0.008933,-0.009266,0.007401,-0.015043,0.995053,0.0000,0.0000
4.320000,0.020107,-0.012465,0.007982,-0.000938,0.015088,1.011269,0.0000,0.0000
4.330000,0.017615,-0.008076,0.006232,-0.003197,0.000848,0.994642,0.0000,0.0000
4.340000,0.020282,-0.011698,0.000397,0.009619,0.013372,1.001278,0.0000,0.0000
4.350000,0.020969,-0.005890,-0.001392,-0.010162,0.010659,0.991026,0.0000,0.0000
4.360000,0.024466,-0.014630,0.008786,-0.010022,0.008150,1.014395,0.0000,0.0000
4.370000,0.015387,-0.002870,-0.003951,-0.016937,0.006930,1.006734,0.0000,0.0000
4.380000,0.019027,-0.022121,-0.000263,-0.002936,-0.003642,0.997219,0.0000,0.0000
4.390000,0.011408,-0.012722,0.008640,0.014847,-0.003471,0.993165,0.0000,0.0000
4.400000,0.021902,-0.004903,0.003471,-0.011223,0.001556,1.001347,0.0000,0.0000
4.410000,0.026904,-0.004258,0.002514,0.011675,-0.003795,1.014765,0.0000,0.0000
4.420000,0.017956,-0.008100,0.004408,-0.008770,-0.006741,0.983124,0.0000,0.0000
4.430000,0.020791,-0.010264,-0.001568,0.004784,-0.020316,0.999773,0.0000,0.0000
4.440000,0.020419,-0.011277,0.003811,0.016822,-0.004279,0.990978,0.0000,0.0000
4.450000,0.017099,-0.009555,0.002813,-0.008266,0.009593,0.990165,0.0000,0.0000
4.460000,0.023970,-0.007949,0.002225,0.020713,-0.002531,0.998411,0.0000,0.0000
4.470000,0.022287,-0.005857,-0.006425,0.002639,-0.007119,1.006051,0.0000,0.0000
4.480000,0.026574,-0.009753,-0.000511,0.001760,-0.028369,1.007397,0.0000,0.0000
4.490000,0.022694,-0.009210,-0.001901,-0.007016,-0.001720,1.011648,0.0000,0.0000
4.500000,0.019509,-0.003532,-0.012346,-0.004413,0.002631,0.999871,0.0000,0.0000
4.510000,0.012031,-0.013191,0.005999,-0.012400,-0.009511,0.989468,0.0000,0.0000
4.520000,0.017351,-0.006915,0.002852,-0.019491,0.014014,0.994313,0.0000,0.0000
4.530000,0.017175,-0.001995,-0.000392,-0.011900,-0.006134,0.993024,0.0000,0.0000
4.540000,0.015154,-0.011599,0.004212,0.003363,-0.013255,1.026758,0.0000,0.0000
4.550000,0.015248,-0.009444,0.000151,0.007310,-0.003152,1.004383,0.0000,0.0000
4.560000,0.030108,-0.009540,-0.005196,0.003152,-0.007708,0.996448,0.0000,0.0000
4.570000,0.020903,-0.008383,-0.001365,0.008144,-0.001850,0.987476,0.0000,0.0000
4.580000,0.024214,-0.011748,0.005822,-0.006285,0.005499,1.003024,0.0000,0.0000
4.590000,0.007055,-0.017168,-0.005373,0.013504,-0.018125,1.008771,0.0000,0.0000
4.600000,0.025242,-0.007623,0.003237,-0.004759,-0.000102,1.002158,0.0000,0.0000
4.610000,0.022020,-0.006606,-0.000992,-0.006732,-0.005399,1.003945,0.0000,0.0000
4.620000,0.012027,-0.016018,-0.001977,-0.005308,-0.002596,0.974439,0.0000,0.0000
4.630000,0.018363,-0.011205,0.003726,-0.019005,-0.002938,1.004556,0.0000,0.0000
4.640000,0.022350,-0.004258,0.005067,-0.010078,0.006112,0.996783,0.0000,0.0000
4.650000,0.016143,-0.002631,-0.003024,-0.008208,-0.003919,0.991810,0.0000,0.0000
4.660000,0.024838,-0.008174,0.006731,0.003954,-0.005914,1.010070,0.0000,0.0000
4.670000,0.016852,-0.012223,-0.000806,0.000377,0.011493,0.994170,0.0000,0.0000
4.680000,0.021693,-0.010133,-0.006054,-0.010535,-0.002114,1.003893,0.0000,0.0000
4.690000,0.021542,-0.007694,0.000234,-0.004314,0.004107,0.990346,0.0000,0.0000
4.700000,0.013533,-0.011603,-0.006885,-0.004957,-0.007199,0.994660,0.0000,0.0000
4.710000,0.019784,-0.013855,-0.002037,-0.016480,0.001399,0.991512,0.0000,0.0000
4.720000,0.021948,-0.023626,-0.003864,0.002343,-0.023532,0.996527,0.0000,0.0000
4.730000,0.020455,-0.009503,-0.007214,0.002214,0.001435,0.990620,0.0000,0.0000
4.740000,0.023591,-0.010237,0.000090,-0.004337,0.005285,1.000938,0.0000,0.0000
4.750000,0.025486,-0.007821,-0.002979,-0.002155,0.008865,0.996474,0.0000,0.0000
4.760000,0.021848,-0.007480,-0.000867,-0.022490,0.001274,1.002067,0.0000,0.0000
4.770000,0.020655,-0.013669,0.005842,-0.001302,-0.006026,0.993066,0.0000,0.0000
4.780000,0.021733,-0.015274,-0.004838,0.019340,0.012670,1.010191,0.0000,0.0000
4.790000,0.026600,-0.007122,-0.008149,0.011554,0.011984,1.004744,0.0000,0.0000
4.800000,0.010535,-0.003987,0.006607,-0.004762,0.001235,1.007518,0.0000,0.0000
4.810000,0.019588,-0.004683,0.000393,0.006694,0.000826,0.985677,0.0000,0.0000
4.820000,0.015180,0.005337,0.001352,0.012699,0.011029,1.016614,0.0000,0.0000
4.830000,0.022686,-0.012887,0.000090,-0.018604,-0.001824,1.008788,0.0000,0.0000
4.840000,0.009517,-0.009046,0.003995,0.012875,-0.008984,0.993678,0.0000,0.0000
4.850000,0.010902,-0.014944,0.002590,0.020081,-0.011120,1.013379,0.0000,0.0000
4.860000,0.022073,-0.012401,0.010649,-0.024476,-0.000655,1.002125,0.0000,0.0000
4.870000,0.030342,-0.001272,0.010994,0.001304,0.009527,1.013252,0.0000,0.0000
4.880000,0.022487,-0.008251,-0.000891,-0.003967,-0.011944,1.018941,0.0000,0.0000
4.890000,0.017831,-0.020106,0.001283,-0.000330,0.001711,1.017642,0.0000,0.0000
4.900000,0.019484,-0.011290,-0.003628,-0.000218,-0.004265,1.001991,0.0000,0.0000
4.910000,0.035187,-0.008088,-0.004166,0.018769,0.008404,1.007938,0.0000,0.0000
4.920000,0.023477,-0.006015,0.003282,0.013719,0.009794,1.013119,0.0000,0.0000
4.930000,0.017559,-0.010011,-0.003547,0.009317,0.008089,0.995466,0.0000,0.0000
4.940000,0.022844,0.002776,0.006019,-0.010863,-0.000898,1.006181,0.0000,0.0000
4.950000,0.019826,-0.008118,0.005743,0.003196,-0.010687,1.006961,0.0000,0.0000
4.960000,0.019526,-0.009446,-0.002757,-0.013466,-0.012138,0.996559,0.0000,0.0000
4.970000,0.014793,-0.023220,0.005591,-0.011312,-0.007058,1.005177,0.0000,0.0000
4.980000,0.008262,-0.003465,-0.003743,0.006428,-0.004691,1.002978,0.0000,0.0000
4.990000,0.020513,-0.010005,-0.008896,-0.014315,-0.000403,1.013734,0.0000,0.0000
5.000000,0.017344,-0.007409,0.000791,0.004711,0.009662,0.985402,0.0000,0.0000
5.010000,0.021337,-0.010866,-0.001521,-0.008317,-0.007657,0.989970,0.0000,0.0000
5.020000,0.014653,0.002227,0.008280,0.000097,0.007231,0.990490,0.0000,0.0000
5.030000,0.006448,-0.018877,0.000688,0.014025,-0.000410,0.990250,0.0000,0.0000
5.040000,0.018823,-0.014860,-0.006794,-0.002263,-0.003894,0.992088,0.0000,0.0000
5.050000,0.015685,-0.014532,0.001151,0.013576,-0.002050,1.021786,0.0000,0.0000
5.060000,0.012117,-0.008664,-0.005635,-0.001571,0.000996,1.005446,0.0000,0.0000
5.070000,0.025505,-0.012704,-0.006053,-0.001834,0.002862,0.993193,0.0000,0.0000
5.080000,0.024354,-0.001796,-0.006931,0.003531,0.009908,0.981272,0.0000,0.0000
5.090000,0.021003,-0.011098,-0.006937,0.012823,0.002117,0.995333,0.0000,0.0000
5.100000,0.022162,-0.006868,0.003750,0.005654,0.003983,0.988533,0.0000,0.0000
5.110000,0.017948,-0.009373,-0.013488,0.020776,-0.003699,0.989722,0.0000,0.0000
5.120000,0.011136,-0.008786,0.000158,-0.005690,-0.004062,0.991343,0.0000,0.0000
5.130000,0.016348,-0.010478,-0.003137,0.006616,-0.001389,1.001286,0.0000,0.0000
5.140000,0.021976,-0.003807,0.002931,0.002225,-0.001591,0.992147,0.0000,0.0000
5.150000,0.018331,-0.006675,0.001104,-0.003779,-0.012980,0.985062,0.0000,0.0000
5.160000,0.021568,-0.004995,0.001822,-0.013383,-0.002073,1.002163,0.0000,0.0000
5.170000,0.015525,-0.008310,-0.000976,-0.008135,-0.012102,1.007904,0.0000,0.0000
5.180000,0.021738,-0.014324,-0.004941,0.008673,0.005808,0.997032,0.0000,0.0000
5.190000,0.027761,-0.011411,-0.005145,0.010639,-0.001834,1.003364,0.0000,0.0000
5.200000,0.020185,-0.014881,-0.005781,-0.001892,0.013690,0.990225,0.0000,0.0000
5.210000,0.026616,-0.008927,-0.005415,0.002597,0.005525,0.991244,0.0000,0.0000
5.220000,0.009631,-0.008264,-0.005403,0.004291,-0.018609,0.998619,0.0000,0.0000
5.230000,0.016061,-0.017206,-0.001173,0.001667,-0.005421,0.988509,0.0000,0.0000
5.240000,0.021033,-0.018508,0.002602,0.004773,0.016320,1.008593,0.0000,0.0000
5.250000,0.021725,-0.008718,0.000134,-0.012890,0.014222,1.005121,0.0000,0.0000
5.260000,0.018609,-0.015571,0.007214,0.005171,-0.011521,1.006531,0.0000,0.0000
5.270000,0.029212,-0.010110,0.001944,-0.004041,-0.006108,1.010428,0.0000,0.0000
5.280000,0.034958,-0.009433,-0.000602,0.007707,-0.002961,1.007079,0.0000,0.0000
5.290000,0.024025,-0.014936,-0.005208,-0.000720,0.008086,1.002692,0.0000,0.0000
5.300000,0.026026,-0.016683,0.002394,-0.006043,0.000972,1.003124,0.0000,0.0000
5.310000,0.015291,-0.011110,-0.005648,0.002583,-0.008251,0.995206,0.0000,0.0000
5.320000,0.021062,-0.013170,0.005572,-0.006184,0.008241,1.002744,0.0000,0.0000
5.330000,0.014983,-0.011058,-0.004058,-0.003508,-0.002630,1.017638,0.0000,0.0000
5.340000,0.017969,-0.002393,0.002167,-0.012671,-0.022428,1.006575,0.0000,0.0000
5.350000,0.010352,-0.006518,0.004985,0.003783,-0.002031,0.997568,0.0000,0.0000
5.360000,0.021256,-0.011468,-0.002592,-0.003585,0.011337,0.993988,0.0000,0.0000
5.370000,0.021839,-0.015577,-0.003451,-0.013309,-0.001916,1.006613,0.0000,0.0000
5.380000,0.021479,-0.012386,0.002961,-0.003360,0.003605,1.002649,0.0000,0.0000
5.390000,0.022621,-0.021991,-0.006305,0.007490,-0.001036,1.021715,0.0000,0.0000
5.400000,0.018863,-0.012668,0.007229,0.005377,0.018368,1.004933,0.0000,0.0000
5.410000,0.019015,-0.006497,-0.003811,-0.004320,-0.005369,0.997852,0.0000,0.0000
5.420000,0.023767,-0.012328,0.001558,-0.004821,0.008544,0.973347,0.0000,0.0000
5.430000,0.018995,-0.009185,-0.005215,0.009797,0.002093,1.012387,0.0000,0.0000
5.440000,0.024649,-0.006900,-0.000722,-0.010502,-0.002129,0.995555,0.0000,0.0000
5.450000,0.021208,-0.012248,0.014767,-0.015444,0.011350,0.995459,0.0000,0.0000
5.460000,0.018829,-0.005527,0.000014,-0.011716,0.003996,0.998115,0.0000,0.0000
5.470000,0.010058,-0.009044,-0.005097,-0.007191,0.004661,1.002894,0.0000,0.0000
5.480000,0.018598,0.000479,0.002025,-0.005927,0.002284,0.998829,0.0000,0.0000
5.490000,0.009360,-0.017608,-0.006712,0.019942,-0.001776,0.997332,0.0000,0.0000
5.500000,0.017274,-0.005264,0.000135,0.016467,0.007611,1.015876,0.0000,0.0000
5.510000,0.019434,-0.008190,-0.002089,-0.001629,-0.016697,0.994392,0.0000,0.0000
5.520000,0.015411,-0.013144,0.005867,0.002524,0.011818,1.008276,0.0000,0.0000
5.530000,0.024436,-0.005157,-0.002918,0.007736,-0.003105,0.994886,0.0000,0.0000
5.540000,0.025760,0.000431,-0.004716,0.016747,0.008010,0.991831,0.0000,0.0000
5.550000,0.021317,-0.008210,0.001809,-0.003437,-0.012389,1.000301,0.0000,0.0000
5.560000,0.024152,-0.006218,0.003184,0.010620,-0.009553,0.999593,0.0000,0.0000
5.570000,0.021641,-0.005187,0.000752,0.004993,0.001287,1.020218,0.0000,0.0000
5.580000,0.009482,-0.010119,0.011926,0.002271,-0.017649,1.001288,0.0000,0.0000
5.590000,0.013094,-0.013271,0.001082,0.016511,0.004457,1.006441,0.0000,0.0000
5.600000,0.024904,-0.009035,-0.004128,-0.000944,0.003243,0.997335,0.0000,0.0000
5.610000,0.016785,-0.011729,-0.007231,-0.009867,-0.000874,0.996526,0.0000,0.0000
5.620000,0.020181,-0.003241,0.001442,-0.000310,-0.011300,0.989620,0.0000,0.0000
5.630000,0.021808,-0.014203,0.002067,-0.010335,0.001293,0.999298,0.0000,0.0000
5.640000,0.024794,-0.011888,-0.001791,0.002366,0.000528,1.016260,0.0000,0.0000
5.650000,0.018761,-0.012582,-0.001536,0.004562,0.002252,1.006673,0.0000,0.0000
5.660000,0.013342,0.001921,0.008854,-0.000301,-0.011634,1.001490,0.0000,0.0000
5.670000,0.021997,-0.020741,0.000065,-0.014224,0.004409,1.013297,0.0000,0.0000
5.680000,0.024973,-0.017246,0.006647,0.008719,-0.003473,1.004831,0.0000,0.0000
5.690000,0.027301,-0.011596,-0.000075,-0.005382,0.011128,0.979276,0.0000,0.0000
5.700000,0.026830,-0.014655,0.004457,-0.015639,-0.009013,0.994250,0.0000,0.0000
5.710000,0.023985,-0.017800,0.002901,-0.006114,0.011948,0.997007,0.0000,0.0000
5.720000,0.022339,-0.010827,0.008628,-0.003465,-0.000240,1.019090,0.0000,0.0000
5.730000,0.020373,-0.006699,-0.003547,0.001921,-0.021827,1.001013,0.0000,0.0000
5.740000,0.016889,-0.017231,-0.006813,0.010985,0.004104,0.985411,0.0000,0.0000
5.750000,0.028727,-0.013347,-0.001775,0.002372,-0.010941,0.984438,0.0000,0.0000
5.760000,0.016413,-0.004316,0.004579,-0.015202,0.011584,1.000327,0.0000,0.0000
5.770000,0.022408,-0.009752,0.001990,-0.009625,-0.008749,0.993235,0.0000,0.0000
5.780000,0.018227,-0.007021,-0.005851,0.015341,-0.006085,0.994337,0.0000,0.0000
5.790000,0.023383,-0.007913,-0.001631,-0.010298,-0.009625,0.984621,0.0000,0.0000
5.800000,0.025501,-0.004787,0.008989,0.004800,0.003202,1.007287,0.0000,0.0000
5.810000,0.024577,-0.011246,0.001695,0.020729,-0.016300,0.986473,0.0000,0.0000
5.820000,0.015365,-0.006375,0.005717,-0.003261,0.006465,0.999534,0.0000,0.0000
5.830000,0.021443,-0.012601,-0.000131,-0.000045,0.010888,1.021484,0.0000,0.0000
5.840000,0.011265,-0.007437,-0.000024,0.009320,0.010219,1.007514,0.0000,0.0000
5.850000,0.023893,-0.014573,-0.008209,0.016074,0.011638,0.990831,0.0000,0.0000
5.860000,0.026213,-0.006790,-0.011814,0.008659,-0.009507,1.011228,0.0000,0.0000
5.870000,0.016720,-0.013579,-0.007440,-0.002087,0.009801,0.993534,0.0000,0.0000
5.880000,0.011042,0.000327,0.008887,0.006650,-0.005179,0.988329,0.0000,0.0000
5.890000,0.012107,-0.007311,0.006260,-0.010211,-0.000003,0.997326,0.0000,0.0000
5.900000,0.018765,-0.007583,0.010080,-0.006136,0.008188,1.010492,0.0000,0.0000
5.910000,0.018630,-0.010717,-0.006464,0.010394,-0.005117,0.993695,0.0000,0.0000
5.920000,0.020324,-0.014135,-0.005024,-0.002870,0.014330,0.998020,0.0000,0.0000
5.930000,0.022540,-0.017069,-0.009387,0.017522,-0.003839,0.985166,0.0000,0.0000
5.940000,0.019489,-0.007073,-0.008325,-0.008506,0.002502,0.991109,0.0000,0.0000
5.950000,0.023843,-0.005362,0.002134,-0.004142,-0.000448,0.993898,0.0000,0.0000
5.960000,0.019371,-0.008466,-0.001449,0.009390,0.025037,0.994721,0.0000,0.0000
5.970000,0.021655,-0.006029,0.003110,-0.002296,-0.004628,1.009692,0.0000,0.0000
5.980000,0.023015,-0.007555,-0.003879,0.006099,0.007674,0.998214,0.0000,0.0000
5.990000,0.023120,0.000487,-0.009064,0.005860,-0.011311,0.986822,0.0000,0.0000
6.000000,0.018863,-0.007363,0.000251,-0.011261,-0.013899,0.994623,0.0000,0.0000
6.010000,0.020066,-0.014013,-0.007266,0.016964,-0.008109,0.998488,0.0000,0.0000
6.020000,0.017349,-0.012830,0.000194,-0.002879,0.005989,0.988541,0.0000,0.0000
6.030000,0.012812,-0.000569,-0.000364,0.007433,0.011416,1.005360,0.0000,0.0000
6.040000,0.020177,-0.017526,-0.007749,0.009466,0.006554,1.005511,0.0000,0.0000
6.050000,0.011970,-0.020321,-0.005114,-0.011442,0.001543,0.990103,0.0000,0.0000
6.060000,0.027664,-0.013015,-0.002721,0.008372,0.003183,0.991286,0.0000,0.0000
6.070000,0.023981,-0.000684,-0.005948,-0.002408,-0.010442,0.981171,0.0000,0.0000
6.080000,0.023038,-0.006616,0.004726,0.004157,-0.019544,0.999738,0.0000,0.0000
6.090000,0.016758,-0.015710,-0.005370,0.007429,-0.002877,1.019087,0.0000,0.0000
6.100000,0.022285,-0.019269,0.004342,0.012136,0.000305,0.988220,0.0000,0.0000
6.110000,0.028592,-0.016381,-0.000407,-0.018531,-0.012193,0.983472,0.0000,0.0000
6.120000,0.025296,-0.004269,-0.001971,-0.013191,-0.000586,1.003687,0.0000,0.0000
6.130000,0.012574,-0.015638,-0.000499,0.006851,0.000726,1.004380,0.0000,0.0000
6.140000,0.013917,-0.022128,0.001518,-0.008941,-0.001209,0.996323,0.0000,0.0000
6.150000,0.022343,-0.013765,0.007042,0.000304,0.005161,1.006140,0.0000,0.0000
6.160000,0.025061,-0.008029,-0.008540,-0.006138,0.018167,1.004616,0.0000,0.0000
6.170000,0.022739,-0.007718,-0.003132,-0.006625,-0.006319,1.011320,0.0000,0.0000
6.180000,0.021781,-0.001300,0.002437,0.018494,0.004476,0.988424,0.0000,0.0000
6.190000,0.028517,-0.008348,0.005833,0.002102,-0.003205,1.001660,0.0000,0.0000
6.200000,0.014504,-0.015853,-0.004352,-0.005142,-0.013292,0.998989,0.0000,0.0000
6.210000,0.021493,-0.000056,0.009026,-0.000489,0.008678,0.997850,0.0000,0.0000
6.220000,0.021917,-0.010166,-0.002653,0.000742,-0.014522,1.004321,0.0000,0.0000
6.230000,0.018578,-0.015319,-0.001768,0.005443,-0.006679,1.004670,0.0000,0.0000
6.240000,0.022802,-0.002336,-0.005345,-0.001093,0.005034,1.014764,0.0000,0.0000
6.250000,0.021291,-0.006289,-0.007221,-0.005746,0.016357,0.997200,0.0000,0.0000
6.260000,0.030649,-0.013586,-0.001369,-0.015708,0.006265,1.002606,0.0000,0.0000
6.270000,0.029946,-0.009185,-0.001235,-0.013887,-0.000811,1.009336,0.0000,0.0000
6.280000,0.023652,-0.003944,0.004265,-0.000458,0.005968,1.001703,0.0000,0.0000
6.290000,0.013424,-0.001551,0.001849,-0.010379,0.003805,1.002844,0.0000,0.0000
6.300000,0.024923,-0.002865,-0.015023,0.005485,0.015128,0.990627,0.0000,0.0000
6.310000,0.010815,-0.008619,0.001662,0.003465,-0.010976,0.995379,0.0000,0.0000
6.320000,0.020964,-0.006314,0.010847,0.002909,-0.005964,0.976641,0.0000,0.0000
6.330000,0.025317,-0.010653,-0.000543,-0.009786,0.007273,0.982242,0.0000,0.0000
6.340000,0.020537,-0.009400,0.001487,0.012931,-0.000981,1.000934,0.0000,0.0000
6.350000,0.024245,-0.017686,-0.001448,0.000672,0.009476,0.992062,0.0000,0.0000
6.360000,0.023987,-0.008094,-0.007377,-0.014677,-0.014217,1.001386,0.0000,0.0000
6.370000,0.021026,-0.006409,0.004075,-0.005480,0.010619,1.008133,0.0000,0.0000
6.380000,0.022343,-0.007620,-0.006389,0.003590,-0.010260,0.988157,0.0000,0.0000
6.390000,0.018263,-0.009308,-0.000265,-0.003282,-0.009940,1.001854,0.0000,0.0000
6.400000,0.016317,-0.016998,0.000464,0.014451,-0.004024,0.989444,0.0000,0.0000
6.410000,0.026884,-0.001487,-0.001462,-0.002099,0.002106,1.029355,0.0000,0.0000
6.420000,0.020665,-0.005054,0.002207,-0.018105,-0.010965,0.987735,0.0000,0.0000
6.430000,0.022155,-0.009471,0.008908,-0.002690,0.003069,1.000748,0.0000,0.0000
6.440000,0.020693,0.001531,0.001418,0.014657,0.012924,0.993954,0.0000,0.0000
6.450000,0.023414,-0.011897,0.000547,0.001575,0.000209,0.995323,0.0000,0.0000
6.460000,0.027755,-0.011321,0.003501,0.016735,0.006240,1.010228,0.0000,0.0000
6.470000,0.026921,-0.004576,0.008567,-0.014235,0.019525,1.000278,0.0000,0.0000
6.480000,0.011287,-0.013192,-0.006953,-0.000216,-0.014855,0.989964,0.0000,0.0000
6.490000,0.021475,-0.009218,-0.003978,-0.002337,-0.000987,1.000747,0.0000,0.0000
6.500000,0.019965,-0.011103,0.004384,-0.016029,-0.004928,1.001332,0.0000,0.0000
6.510000,0.017999,-0.012757,-0.002182,0.002086,0.012432,0.998147,0.0000,0.0000
6.520000,0.018666,-0.008223,-0.001210,-0.019319,0.002679,0.996230,0.0000,0.0000
6.530000,0.017141,-0.006861,0.000220,-0.005639,-0.021753,0.982812,0.0000,0.0000
6.540000,0.020070,-0.010586,0.002189,0.002230,-0.004780,0.987359,0.0000,0.0000
6.550000,0.014530,-0.010695,-0.005740,0.007552,-0.013256,0.982094,0.0000,0.0000
6.560000,0.019031,-0.018870,0.008134,-0.009918,-0.000518,0.997560,0.0000,0.0000
6.570000,0.015901,-0.018834,-0.009304,0.008646,0.010209,1.021629,0.0000,0.0000
6.580000,0.012690,-0.007198,-0.000070,0.008454,-0.005137,1.007214,0.0000,0.0000
6.590000,0.024478,-0.006968,0.007232,-0.001747,0.015437,0.992995,0.0000,0.0000
6.600000,0.028335,-0.023733,0.000068,-0.008005,0.000016,1.010312,0.0000,0.0000
6.610000,0.023591,-0.009525,0.008508,-0.014760,-0.008142,1.015100,0.0000,0.0000
6.620000,0.021640,-0.020373,0.001704,-0.011843,0.014774,1.011438,0.0000,0.0000
6.630000,0.017265,-0.003533,-0.004167,0.009202,0.005790,0.998730,0.0000,0.0000
6.640000,0.012892,-0.011399,-0.011448,-0.005635,-0.018505,1.012155,0.0000,0.0000
6.650000,0.015167,-0.022160,0.002921,0.003689,-0.005068,1.021174,0.0000,0.0000
6.660000,0.023868,-0.009668,-0.003225,-0.029556,0.004797,1.009604,0.0000,0.0000
6.670000,0.017041,-0.017065,-0.000209,-0.016721,0.000073,1.007710,0.0000,0.0000
6.680000,0.027549,-0.008674,0.000982,0.007499,0.013999,0.996807,0.0000,0.0000
6.690000,0.013860,-0.013958,-0.006293,-0.008889,-0.001208,1.003429,0.0000,0.0000
6.700000,0.020781,-0.009651,-0.001786,0.004235,0.008854,1.007597,0.0000,0.0000
6.710000,0.027487,-0.011451,-0.001258,0.016945,0.002010,1.004129,0.0000,0.0000
6.720000,0.018319,-0.005156,-0.002012,-0.010076,-0.000606,0.995577,0.0000,0.0000
6.730000,0.024170,-0.011889,0.000617,-0.002171,0.003402,0.993697,0.0000,0.0000
6.740000,0.025523,-0.017120,-0.001927,-0.007085,0.006479,1.000400,0.0000,0.0000
6.750000,0.022424,-0.011650,-0.003589,-0.011195,-0.003341,0.994645,0.0000,0.0000
6.760000,0.021400,-0.008226,0.004885,-0.001066,-0.007485,0.989389,0.0000,0.0000
6.770000,0.020306,-0.008196,0.009741,0.001819,0.017575,1.018732,0.0000,0.0000
6.780000,0.014756,-0.003948,0.005683,0.013455,-0.000099,1.009550,0.0000,0.0000
6.790000,0.017595,-0.010351,0.000096,0.017829,-0.002153,1.009551,0.0000,0.0000
6.800000,0.020330,-0.013545,0.001213,0.006600,-0.007121,1.006343,0.0000,0.0000
6.810000,0.016438,-0.014385,0.001100,-0.002353,-0.009827,0.983705,0.0000,0.0000
6.820000,0.020116,-0.008784,-0.002297,0.001875,-0.015271,1.003926,0.0000,0.0000
6.830000,0.022081,-0.008610,-0.003064,0.000793,0.001300,1.010694,0.0000,0.0000
6.840000,0.021380,-0.008731,-0.003618,0.008620,0.011725,0.995064,0.0000,0.0000
6.850000,0.023194,-0.008459,-0.000233,-0.012856,0.017565,0.981346,0.0000,0.0000
6.860000,0.021515,-0.011880,0.005722,-0.004226,0.000394,1.006105,0.0000,0.0000
6.870000,0.022279,-0.012596,0.003403,0.003915,0.009876,0.994897,0.0000,0.0000
6.880000,0.019770,-0.011953,-0.004184,0.002545,0.004085,1.014171,0.0000,0.0000
6.890000,0.018376,-0.008067,0.005703,-0.001137,0.000630,1.001338,0.0000,0.0000
6.900000,0.016558,-0.014929,0.005570,0.001727,-0.000744,0.987610,0.0000,0.0000
6.910000,0.020587,-0.004151,-0.005736,-0.008890,0.011056,1.014259,0.0000,0.0000
6.920000,0.027736,-0.012753,0.002989,-0.007480,0.005187,0.996365,0.0000,0.0000
6.930000,0.020977,-0.003321,0.001685,-0.002397,0.000557,1.002646,0.0000,0.0000
6.940000,0.017448,-0.008971,0.002986,0.015516,-0.020511,0.988163,0.0000,0.0000
6.950000,0.013846,-0.005645,0.012136,0.001927,0.001207,1.011322,0.0000,0.0000
6.960000,0.007862,-0.010890,-0.015489,0.001538,-0.005054,0.995181,0.0000,0.0000
6.970000,0.021690,-0.012902,0.005522,-0.000029,0.003785,1.025211,0.0000,0.0000
6.980000,0.017772,-0.005400,-0.004106,0.012389,0.009578,1.001391,0.0000,0.0000
6.990000,0.024923,-0.002014,0.006839,0.000014,-0.000542,1.010991,0.0000,0.0000
7.000000,0.012702,-0.012989,0.002405,0.005645,0.018455,1.017448,0.0000,0.0000
7.010000,0.021608,-0.007812,-0.006535,-0.001835,0.002590,0.997761,0.0000,0.0000
7.020000,0.020298,-0.006987,-0.004713,-0.005622,-0.017605,1.011339,0.0000,0.0000
7.030000,0.014775,-0.018431,0.003814,-0.002116,0.009564,0.996353,0.0000,0.0000
7.040000,0.030518,-0.006466,0.000746,0.001144,-0.002036,1.008004,0.0000,0.0000
7.050000,0.029891,-0.012088,-0.005381,0.005909,0.010553,0.985245,0.0000,0.0000
7.060000,0.016580,-0.014925,0.002779,0.004999,-0.007251,0.988867,0.0000,0.0000
7.070000,0.023375,-0.020155,0.003180,-0.001532,0.018957,1.009813,0.0000,0.0000
7.080000,0.017139,-0.011353,-0.001367,-0.007182,0.000806,1.009517,0.0000,0.0000
7.090000,0.012563,-0.011124,0.007362,0.007320,-0.008025,0.992050,0.0000,0.0000
7.100000,0.015786,-0.017913,0.005669,0.000685,-0.006875,0.985868,0.0000,0.0000
7.110000,0.018108,-0.012521,0.008479,-0.004526,0.001138,1.010552,0.0000,0.0000
7.120000,0.023288,-0.010891,-0.010741,0.013800,0.005888,0.995727,0.0000,0.0000
7.130000,0.019564,-0.014701,-0.004420,-0.014598,0.004936,1.005098,0.0000,0.0000
7.140000,0.020859,-0.006163,0.002636,0.001202,-0.008685,1.005812,0.0000,0.0000
7.150000,0.025834,-0.006897,0.006133,-0.004646,-0.009622,1.012296,0.0000,0.0000
7.160000,0.017133,-0.008807,-0.000936,0.000216,-0.002657,0.994705,0.0000,0.0000
7.170000,0.011247,-0.000644,0.001000,-0.018895,-0.008901,0.988949,0.0000,0.0000
7.180000,0.016359,-0.022502,0.002822,0.016087,-0.002414,1.007297,0.0000,0.0000
7.190000,0.022947,-0.016105,0.005977,-0.016529,-0.005640,0.996480,0.0000,0.0000
7.200000,0.026159,-0.009418,-0.000608,-0.007882,0.000883,1.000416,0.0000,0.0000
7.210000,0.023579,-0.003166,0.003614,0.000179,-0.001496,1.015687,0.0000,0.0000
7.220000,0.020984,-0.010079,0.008797,0.015360,0.005572,0.998936,0.0000,0.0000
7.230000,0.016894,-0.004775,-0.002218,0.009401,-0.007666,1.001025,0.0000,0.0000
7.240000,0.021970,-0.009291,0.001144,0.003732,-0.010986,0.989144,0.0000,0.0000
7.250000,0.019280,-0.001172,-0.000608,-0.009063,-0.006453,1.000333,0.0000,0.0000
7.260000,0.025782,-0.012767,0.002742,0.001830,-0.003479,0.990770,0.0000,0.0000
7.270000,0.019257,-0.013532,0.002627,-0.017213,0.011024,1.007412,0.0000,0.0000
7.280000,0.022828,-0.002685,0.002946,-0.016692,0.000520,1.004396,0.0000,0.0000
7.290000,0.016662,-0.015521,0.002114,0.004995,-0.004151,0.997633,0.0000,0.0000
7.300000,0.017527,-0.012769,-0.000281,0.010480,-0.015709,0.996680,0.0000,0.0000
7.310000,0.027876,-0.008451,0.000752,0.008153,-0.009787,0.988201,0.0000,0.0000
7.320000,0.011907,-0.017110,0.001214,0.008285,-0.004061,0.993371,0.0000,0.0000
7.330000,0.021969,-0.007008,0.001251,-0.018564,-0.005309,0.975317,0.0000,0.0000
7.340000,0.021184,-0.014139,-0.003195,0.014650,0.012879,1.004697,0.0000,0.0000
7.350000,0.021344,-0.009157,-0.002853,-0.000494,0.018624,0.991473,0.0000,0.0000
7.360000,0.016777,-0.009210,0.004344,0.008116,-0.009410,0.998733,0.0000,0.0000
7.370000,0.018711,-0.016001,0.000377,-0.004679,0.008951,1.004216,0.0000,0.0000
7.380000,0.016205,-0.009606,-0.001735,-0.006176,-0.004733,1.010353,0.0000,0.0000
7.390000,0.017989,-0.018337,-0.003766,0.007854,0.020938,0.989754,0.0000,0.0000
7.400000,0.018271,-0.011598,-0.006843,0.003908,-0.000493,1.002716,0.0000,0.0000
7.410000,0.030887,-0.011295,0.003860,0.008113,-0.006180,0.994244,0.0000,0.0000
7.420000,0.027573,-0.006521,0.000698,-0.010634,0.008590,1.005132,0.0000,0.0000
7.430000,0.030685,-0.002832,0.003910,0.002607,0.000605,0.994648,0.0000,0.0000
7.440000,0.021501,-0.008812,0.003170,0.010564,0.003036,0.994724,0.0000,0.0000
7.450000,0.023926,-0.002451,-0.004057,0.004084,0.005331,1.005216,0.0000,0.0000
7.460000,0.022455,-0.010440,-0.000494,0.016400,0.016841,0.986377,0.0000,0.0000
7.470000,0.007667,-0.007869,-0.003276,-0.005020,-0.015491,1.003439,0.0000,0.0000
7.480000,0.019735,-0.012621,0.004368,0.023640,0.014336,1.011412,0.0000,0.0000
7.490000,0.018001,-0.006799,-0.000182,0.011249,0.005661,0.999664,0.0000,0.0000
7.500000,0.022687,-0.013486,0.003852,0.014620,-0.003508,1.005406,0.0000,0.0000
7.510000,0.011909,-0.005446,0.004265,-0.009916,0.016943,1.001110,0.0000,0.0000
7.520000,0.011596,-0.016649,0.004250,-0.002643,0.010724,0.984942,0.0000,0.0000
7.530000,0.019522,-0.005252,-0.003291,0.006612,-0.003487,1.003347,0.0000,0.0000
7.540000,0.021569,0.000848,-0.006014,0.007573,0.012750,0.989081,0.0000,0.0000
7.550000,0.020397,0.001219,0.005102,-0.028813,-0.002304,0.983391,0.0000,0.0000
7.560000,0.021474,-0.013525,-0.002727,-0.008128,0.002861,0.995473,0.0000,0.0000
7.570000,0.015608,-0.011102,0.001975,-0.008313,0.010793,0.983872,0.0000,0.0000
7.580000,0.021981,-0.011888,0.007643,-0.006248,-0.006443,0.986967,0.0000,0.0000
7.590000,0.029647,-0.006999,-0.005268,-0.003261,-0.009301,1.014798,0.0000,0.0000
7.600000,0.022031,-0.019891,0.001020,0.008893,0.000019,1.004600,0.0000,0.0000
7.610000,0.019465,-0.008985,0.001035,-0.006873,0.003380,1.001608,0.0000,0.0000
7.620000,0.019814,-0.013320,-0.004926,0.002393,0.008025,0.976512,0.0000,0.0000
7.630000,0.017401,-0.003422,0.004449,-0.006926,0.013141,0.990410,0.0000,0.0000
7.640000,0.016164,-0.000575,-0.002119,-0.002102,-0.016031,0.990178,0.0000,0.0000
7.650000,0.014287,-0.010668,-0.008917,0.010334,-0.003456,0.994111,0.0000,0.0000
7.660000,0.016918,-0.006385,0.007456,-0.003963,0.015690,1.015661,0.0000,0.0000
7.670000,0.026525,-0.008546,-0.007243,0.006555,-0.003975,1.001891,0.0000,0.0000
7.680000,0.010837,-0.011374,0.001135,-0.009113,0.002859,1.016278,0.0000,0.0000
7.690000,0.021123,-0.013332,0.011599,-0.020947,-0.008945,1.003973,0.0000,0.0000
7.700000,0.017124,-0.021159,0.001266,0.008089,-0.007734,1.014272,0.0000,0.0000
7.710000,0.022433,-0.004198,-0.007430,-0.000029,0.015573,1.019628,0.0000,0.0000
7.720000,0.026417,-0.010002,0.000892,-0.006109,0.010699,0.993228,0.0000,0.0000
7.730000,0.020602,-0.020053,-0.007329,0.017335,0.000576,1.002100,0.0000,0.0000
7.740000,0.009302,-0.010162,0.010093,-0.014579,-0.023174,0.998425,0.0000,0.0000
7.750000,0.017410,-0.011025,-0.006129,-0.013231,-0.012052,1.006251,0.0000,0.0000
7.760000,0.019769,-0.005988,-0.005263,0.005763,-0.004315,1.000871,0.0000,0.0000
7.770000,0.024557,-0.009838,-0.001715,-0.016254,0.000624,1.007658,0.0000,0.0000
7.780000,0.016911,-0.010325,-0.008642,-0.013048,0.003943,1.012673,0.0000,0.0000
7.790000,0.018482,-0.018176,-0.001858,-0.015302,-0.002694,1.018900,0.0000,0.0000
7.800000,0.021464,-0.010745,0.005076,-0.003718,0.003254,1.001962,0.0000,0.0000
7.810000,0.022183,-0.017200,0.003481,0.008646,-0.022365,0.973407,0.0000,0.0000
7.820000,0.015610,-0.002687,0.000102,0.006656,0.005438,1.008717,0.0000,0.0000
7.830000,0.016869,-0.012874,0.001845,0.005974,0.005639,1.003334,0.0000,0.0000
7.840000,0.017620,-0.004573,0.002316,0.010451,-0.024977,1.009921,0.0000,0.0000
7.850000,0.008009,-0.008961,-0.003268,0.001186,-0.004683,0.996947,0.0000,0.0000
7.860000,0.020948,-0.008295,-0.003931,-0.024908,-0.007680,1.005333,0.0000,0.0000
7.870000,0.015848,-0.007890,-0.001815,-0.009290,0.011511,1.016341,0.0000,0.0000
7.880000,0.019491,-0.010250,0.004725,-0.013093,-0.008605,1.011170,0.0000,0.0000
7.890000,0.024444,-0.012435,-0.003836,0.003460,-0.013896,0.995074,0.0000,0.0000
7.900000,0.018855,-0.022157,0.002917,0.007553,0.010542,0.985788,0.0000,0.0000
7.910000,0.013652,-0.014030,-0.006453,0.020320,-0.009665,0.996901,0.0000,0.0000
7.920000,0.021020,-0.007744,0.007180,-0.010778,0.008712,1.001478,0.0000,0.0000
7.930000,0.014197,-0.009253,-0.006944,0.016067,-0.007233,1.009976,0.0000,0.0000
7.940000,0.026448,-0.013065,-0.004449,0.001300,-0.010402,1.008927,0.0000,0.0000
7.950000,0.020870,-0.013787,-0.003401,0.007200,-0.014389,1.016771,0.0000,0.0000
7.960000,0.016103,-0.010973,-0.004592,0.016132,0.008182,1.012933,0.0000,0.0000
7.970000,0.023245,-0.009554,0.008425,0.006607,0.004341,1.005736,0.0000,0.0000
7.980000,0.023660,-0.008615,-0.000830,-0.015873,0.020488,0.987057,0.0000,0.0000
7.990000,0.009280,-0.013550,0.009627,0.012150,-0.005993,1.002637,0.0000,0.0000
8.000000,0.019879,-0.019889,-0.001666,0.002909,0.011679,0.988012,0.0000,0.0000
8.010000,0.008752,-0.017852,0.001648,0.000805,0.001492,1.001477,0.0000,0.0000
8.020000,0.018173,-0.016811,0.002263,0.003857,0.005765,1.012438,0.0000,0.0000
8.030000,0.013816,-0.021677,-0.008903,0.021347,-0.009125,1.003986,0.0000,0.0000
8.040000,0.019924,-0.006362,0.016038,-0.005161,-0.001698,0.994032,0.0000,0.0000
8.050000,0.021225,-0.007401,-0.004847,0.013164,0.011459,1.004448,0.0000,0.0000
8.060000,0.019449,-0.011184,-0.008216,0.006556,-0.009745,0.994982,0.0000,0.0000
8.070000,0.024981,-0.014597,-0.002609,0.008578,0.018567,0.993098,0.0000,0.0000
8.080000,0.025518,-0.013271,0.001940,0.004841,-0.011383,1.010252,0.0000,0.0000
8.090000,0.028996,-0.009740,0.001348,-0.011721,0.017877,1.000630,0.0000,0.0000
8.100000,0.013619,-0.006178,-0.007307,-0.006863,-0.021314,1.013756,0.0000,0.0000
8.110000,0.031052,-0.013173,-0.003267,-0.005776,-0.005653,1.005541,0.0000,0.0000
8.120000,0.027292,-0.015038,0.002202,-0.018026,0.015237,0.999117,0.0000,0.0000
8.130000,0.016499,-0.002345,-0.000530,0.013699,0.010742,1.016569,0.0000,0.0000
8.140000,0.015999,-0.009717,0.001842,-0.001938,0.015228,0.992859,0.0000,0.0000
8.150000,0.025012,-0.003184,-0.009766,-0.009695,-0.009036,0.994539,0.0000,0.0000
8.160000,0.021952,-0.010869,0.000395,-0.004593,-0.000818,1.004844,0.0000,0.0000
8.170000,0.023727,-0.013906,-0.000569,-0.007616,-0.001784,0.985645,0.0000,0.0000
8.180000,0.024772,-0.006643,-0.000612,-0.006840,-0.004564,0.993345,0.0000,0.0000
8.190000,0.012282,-0.001834,0.016449,-0.012294,-0.011669,1.005784,0.0000,0.0000
8.200000,0.023028,-0.017866,-0.009605,0.005422,-0.019916,1.014231,0.0000,0.0000
8.210000,0.017524,-0.009572,-0.000016,-0.005595,-0.001421,0.997003,0.0000,0.0000
8.220000,0.026222,-0.010459,-0.000160,-0.005293,-0.006343,0.992634,0.0000,0.0000
8.230000,0.020052,-0.000816,0.005576,0.002365,0.016688,1.010139,0.0000,0.0000
8.240000,0.021036,-0.010823,-0.005487,0.002485,-0.003158,0.984149,0.0000,0.0000
8.250000,0.013577,-0.000318,0.001072,0.004979,0.002000,0.995354,0.0000,0.0000
8.260000,0.022307,-0.004582,-0.001544,0.005123,0.010252,0.995169,0.0000,0.0000
8.270000,0.020848,-0.013698,0.003015,-0.003690,0.011464,0.992360,0.0000,0.0000
8.280000,0.028446,-0.011553,-0.004200,-0.009038,0.006627,0.991438,0.0000,0.0000
8.290000,0.029023,-0.003588,0.002590,-0.014223,-0.000241,0.992738,0.0000,0.0000
8.300000,0.010942,-0.007875,0.011008,-0.005359,0.008092,1.012839,0.0000,0.0000
8.310000,0.015196,-0.011700,0.001342,0.004721,-0.011455,1.002165,0.0000,0.0000
8.320000,0.019464,-0.005243,-0.007987,-0.005642,-0.005034,0.996833,0.0000,0.0000
8.330000,0.023612,-0.013141,0.013690,-0.007071,0.008401,1.010199,0.0000,0.0000
8.340000,0.024824,-0.011021,-0.004148,-0.002551,0.006656,1.001212,0.0000,0.0000
8.350000,0.022910,-0.007127,-0.004420,-0.009351,0.014412,0.995139,0.0000,0.0000
8.360000,0.012078,-0.000703,-0.004168,-0.009339,0.009674,0.988683,0.0000,0.0000
8.370000,0.015646,-0.004760,-0.004099,0.025082,0.000976,1.026844,0.0000,0.0000
8.380000,0.020646,-0.009723,-0.003206,-0.002225,-0.005009,0.999765,0.0000,0.0000
8.390000,0.023859,-0.016356,-0.004590,-0.020936,0.015041,0.999255,0.0000,0.0000
8.400000,0.019932,-0.010290,0.005023,0.003211,0.008502,0.998326,0.0000,0.0000
8.410000,0.019394,-0.010278,-0.009312,0.010898,-0.015778,0.990056,0.0000,0.0000
8.420000,0.023354,-0.009724,0.004064,0.017060,0.018620,1.013826,0.0000,0.0000
8.430000,0.018872,0.000244,-0.004399,-0.000863,0.009965,0.997865,0.0000,0.0000
8.440000,0.019395,-0.011765,0.006823,-0.024672,0.012727,1.010597,0.0000,0.0000
8.450000,0.019638,-0.007194,-0.004842,0.011093,0.030605,0.990806,0.0000,0.0000
8.460000,0.026981,-0.010282,-0.001690,-0.004870,-0.001897,0.987483,0.0000,0.0000
8.470000,0.013211,-0.001688,-0.000088,0.005525,0.003103,1.004767,0.0000,0.0000
8.480000,0.012372,-0.014743,0.003166,0.009983,-0.011445,0.994220,0.0000,0.0000
8.490000,0.014656,-0.006735,0.001722,0.000328,-0.006500,1.003433,0.0000,0.0000
8.500000,0.020160,-0.013718,0.001666,-0.006646,0.009519,1.006260,0.0000,0.0000
8.510000,0.016562,-0.007064,0.000336,-0.007059,-0.009140,0.983372,0.0000,0.0000
8.520000,0.014347,-0.008266,0.006038,-0.006283,0.001596,1.003444,0.0000,0.0000
8.530000,0.023903,-0.007784,0.006135,0.007663,-0.007619,1.003967,0.0000,0.0000
8.540000,0.008290,-0.010897,0.000102,0.005794,-0.003017,1.008324,0.0000,0.0000
8.550000,0.026605,-0.014197,-0.002716,0.002605,0.004904,1.001439,0.0000,0.0000
8.560000,0.024155,-0.015912,0.003879,0.011665,0.011100,1.004265,0.0000,0.0000
8.570000,0.018812,-0.008001,-0.000374,-0.015866,-0.006053,0.999595,0.0000,0.0000
8.580000,0.017421,-0.014663,-0.001159,-0.003716,0.000692,0.999514,0.0000,0.0000
8.590000,0.020860,-0.005033,0.000683,0.004064,-0.012224,0.970522,0.0000,0.0000
8.600000,0.017998,-0.006613,-0.001696,-0.006233,-0.012398,1.008918,0.0000,0.0000
8.610000,0.017362,-0.008773,0.005654,0.005361,0.022433,0.998675,0.0000,0.0000
8.620000,0.024781,-0.006532,-0.003275,0.000477,-0.005648,0.989754,0.0000,0.0000
8.630000,0.021500,-0.013875,0.008398,-0.007408,-0.005443,1.000914,0.0000,0.0000
8.640000,0.017407,-0.009733,-0.003039,-0.014219,-0.024126,0.987101,0.0000,0.0000
8.650000,0.027608,-0.007778,0.000769,-0.004647,-0.001454,1.002990,0.0000,0.0000
8.660000,0.013053,-0.013991,-0.004452,0.012590,-0.010565,1.011726,0.0000,0.0000
8.670000,0.017672,0.003630,-0.000393,0.000323,0.013508,1.008748,0.0000,0.0000
8.680000,0.024696,-0.015346,0.005679,0.016799,-0.001023,0.995159,0.0000,0.0000
8.690000,0.014543,-0.004913,0.001470,0.000067,-0.012352,1.016210,0.0000,0.0000
8.700000,0.024376,-0.010100,0.007381,-0.009513,0.008816,0.990014,0.0000,0.0000
8.710000,0.027054,-0.011376,0.006115,-0.004158,0.003987,1.011418,0.0000,0.0000
8.720000,0.015490,-0.009515,-0.004191,0.008521,-0.006037,0.996272,0.0000,0.0000
8.730000,0.018987,-0.004176,-0.005207,-0.000255,-0.003289,0.994505,0.0000,0.0000
8.740000,0.016063,-0.010798,0.000980,-0.015473,0.002338,0.988158,0.0000,0.0000
8.750000,0.020074,0.001398,-0.004838,-0.000659,-0.002546,1.009816,0.0000,0.0000
8.760000,0.017628,-0.018928,-0.008055,0.001771,0.002533,1.010672,0.0000,0.0000
8.770000,0.017317,-0.006670,-0.005321,0.012954,-0.000711,0.993219,0.0000,0.0000
8.780000,0.020890,-0.001287,-0.004236,-0.012398,-0.010153,0.988449,0.0000,0.0000
8.790000,0.019747,-0.008246,-0.000821,0.001970,0.011852,0.997114,0.0000,0.0000
8.800000,0.013736,-0.021428,0.001210,-0.006800,-0.002490,1.004097,0.0000,0.0000
8.810000,0.022313,-0.017839,-0.004786,0.000743,-0.001438,1.011468,0.0000,0.0000
8.820000,0.017491,-0.020324,0.005851,-0.016356,-0.009705,1.003896,0.0000,0.0000
8.830000,0.014704,0.002443,0.001191,0.005354,-0.004363,1.022167,0.0000,0.0000
8.840000,0.022699,-0.013584,0.006273,-0.016893,-0.005864,1.002885,0.0000,0.0000
8.850000,0.020690,-0.014795,0.007900,0.014714,-0.009348,1.003733,0.0000,0.0000
8.860000,0.016829,-0.012163,0.004932,0.001261,-0.001083,1.001027,0.0000,0.0000
8.870000,0.014139,-0.003896,-0.003756,0.013084,-0.004582,0.995443,0.0000,0.0000
8.880000,0.027428,-0.009044,-0.003197,-0.005356,0.006054,1.018709,0.0000,0.0000
8.890000,0.023069,-0.011967,-0.005606,-0.006726,-0.001190,1.002449,0.0000,0.0000
8.900000,0.016722,-0.003600,-0.004788,-0.007139,0.004973,1.004809,0.0000,0.0000
8.910000,0.018049,-0.005191,-0.007040,0.016338,0.021867,1.019525,0.0000,0.0000
8.920000,0.020595,-0.000164,0.000269,0.013293,-0.001994,1.001940,0.0000,0.0000
8.930000,0.022621,-0.018734,-0.001040,0.017177,-0.029220,1.003850,0.0000,0.0000
8.940000,0.024609,-0.008361,0.000972,0.013869,0.003354,0.981079,0.0000,0.0000
8.950000,0.015278,-0.011480,0.000721,-0.004474,-0.001048,1.016683,0.0000,0.0000
8.960000,0.005341,-0.004242,0.004682,0.006021,0.000153,1.000637,0.0000,0.0000
8.970000,0.021818,-0.008789,-0.003618,0.007809,-0.008254,0.999596,0.0000,0.0000
8.980000,0.018210,-0.015752,0.003025,-0.000694,-0.011642,0.999223,0.0000,0.0000
8.990000,0.013116,-0.002835,0.002579,0.019837,-0.005665,1.007046,0.0000,0.0000
9.000000,0.015167,-0.014251,-0.000445,0.004105,0.009225,0.997334,0.0000,0.0000
9.010000,0.025501,-0.005187,-0.004365,-0.001779,-0.009136,1.017012,0.0000,0.0000
9.020000,0.017253,-0.005588,0.004558,-0.002531,-0.004854,1.003433,0.0000,0.0000
9.030000,0.016137,-0.016303,-0.004815,0.003376,0.001914,1.017562,0.0000,0.0000
9.040000,0.010896,-0.007494,-0.005748,0.011504,0.006929,1.001266,0.0000,0.0000
9.050000,0.027341,-0.011856,-0.002638,-0.010469,-0.006534,1.001147,0.0000,0.0000
9.060000,0.023349,-0.003628,-0.001337,-0.007261,-0.003328,0.995734,0.0000,0.0000
9.070000,0.017674,-0.012001,-0.004333,-0.000520,-0.005095,0.998321,0.0000,0.0000
9.080000,0.013114,-0.009278,0.002846,0.006436,-0.005450,0.988673,0.0000,0.0000
9.090000,0.013536,-0.015823,-0.003193,-0.003078,-0.017615,1.006653,0.0000,0.0000
9.100000,0.012360,-0.013403,-0.003582,0.008228,0.018250,0.996494,0.0000,0.0000
9.110000,0.018640,-0.011944,-0.000991,-0.001679,0.024475,0.989209,0.0000,0.0000
9.120000,0.019459,-0.013909,0.001768,-0.005148,0.005700,0.989295,0.0000,0.0000
9.130000,0.030460,-0.008961,-0.008755,0.006929,-0.004650,0.988574,0.0000,0.0000
9.140000,0.022187,-0.012562,0.003655,-0.005413,0.008938,1.001475,0.0000,0.0000
9.150000,0.021770,-0.009219,-0.001804,-0.003569,0.004472,1.007016,0.0000,0.0000
9.160000,0.017981,0.001058,0.008368,-0.011315,0.010750,0.999311,0.0000,0.0000
9.170000,0.021153,-0.013894,0.008167,-0.008130,-0.000804,0.992857,0.0000,0.0000
9.180000,0.029553,-0.003811,-0.006517,-0.004432,0.003601,0.995756,0.0000,0.0000
9.190000,0.018252,-0.015303,0.001239,-0.010751,0.008224,1.023636,0.0000,0.0000
9.200000,0.018392,-0.001894,0.001843,-0.006584,-0.003400,0.990550,0.0000,0.0000
9.210000,0.020568,-0.006547,0.004593,-0.002728,-0.011773,0.999271,0.0000,0.0000
9.220000,0.028252,-0.008609,-0.000312,-0.020420,-0.004271,1.005370,0.0000,0.0000
9.230000,0.015336,-0.003358,-0.002789,-0.008549,-0.005716,0.999108,0.0000,0.0000
9.240000,0.024926,-0.012767,-0.008785,-0.000752,0.005152,1.015160,0.0000,0.0000
9.250000,0.014471,-0.002712,0.003333,0.004490,-0.007556,0.991362,0.0000,0.0000
9.260000,0.015297,-0.005407,0.001079,0.010506,0.017903,1.000214,0.0000,0.0000
9.270000,0.019768,-0.000579,-0.006422,-0.004365,-0.003637,0.996315,0.0000,0.0000
9.280000,0.020708,-0.014095,0.005717,-0.013341,-0.008016,0.983465,0.0000,0.0000
9.290000,0.013105,-0.007102,0.003096,-0.001892,0.008309,1.006095,0.0000,0.0000
9.300000,0.017164,-0.010171,0.001807,0.019742,-0.004330,1.003675,0.0000,0.0000
9.310000,0.022684,-0.004010,0.002091,0.010554,-0.010462,0.997473,0.0000,0.0000
9.320000,0.010482,-0.010222,0.011466,0.002418,0.000876,1.002654,0.0000,0.0000
9.330000,0.020715,-0.016456,-0.003404,-0.001653,0.001660,0.991608,0.0000,0.0000
9.340000,0.019480,-0.013562,-0.006484,-0.006387,-0.007914,1.008254,0.0000,0.0000
9.350000,0.026585,-0.007139,-0.001041,-0.005382,-0.015436,0.994911,0.0000,0.0000
9.360000,0.027691,-0.004330,0.001105,-0.002341,0.000042,1.004190,0.0000,0.0000
9.370000,0.019964,-0.007876,-0.003787,0.000507,-0.003446,1.010579,0.0000,0.0000
9.380000,0.013905,-0.003634,-0.000420,-0.004850,0.000214,1.001270,0.0000,0.0000
9.390000,0.018857,-0.007899,-0.002837,-0.016460,0.006846,0.999819,0.0000,0.0000
9.400000,0.028187,-0.008080,-0.009832,0.012178,-0.006754,1.005414,0.0000,0.0000
9.410000,0.030909,-0.004640,-0.005374,-0.000821,-0.015790,1.006588,0.0000,0.0000
9.420000,0.022764,-0.014967,0.002227,0.009189,0.007939,0.993541,0.0000,0.0000
9.430000,0.016600,-0.015427,-0.006347,0.003145,0.000392,1.012762,0.0000,0.0000
9.440000,0.021346,-0.011532,-0.007007,0.015123,0.001620,0.999777,0.0000,0.0000
9.450000,0.015065,-0.015063,0.003111,-0.009395,0.005747,1.006195,0.0000,0.0000
9.460000,0.018126,-0.017851,0.002019,0.013765,-0.008098,0.987798,0.0000,0.0000
9.470000,0.025347,-0.009260,-0.003061,0.012016,-0.002715,1.004479,0.0000,0.0000
9.480000,0.018027,-0.013608,0.001079,-0.008265,-0.017422,0.994838,0.0000,0.0000
9.490000,0.026060,-0.004619,0.010674,0.009742,0.015847,1.002526,0.0000,0.0000
9.500000,0.017865,-0.007689,-0.004660,0.007233,-0.004396,1.002603,0.0000,0.0000
9.510000,0.015819,-0.010602,0.004811,-0.002009,-0.006609,1.002844,0.0000,0.0000
9.520000,0.024322,-0.010858,-0.005735,-0.015029,-0.013140,1.010435,0.0000,0.0000
9.530000,0.019567,-0.007631,0.005268,0.002861,0.004732,0.995205,0.0000,0.0000
9.540000,0.012104,-0.006901,-0.000471,0.005678,-0.010450,0.998730,0.0000,0.0000
9.550000,0.029883,-0.014021,0.000481,0.012793,-0.002269,1.001319,0.0000,0.0000
9.560000,0.009554,-0.006191,-0.002162,0.012559,-0.000890,0.996502,0.0000,0.0000
9.570000,0.022136,-0.011103,-0.002524,0.015039,0.009631,1.001176,0.0000,0.0000
9.580000,0.023962,-0.005955,0.002848,0.000567,0.000710,1.004062,0.0000,0.0000
9.590000,0.022771,-0.008229,-0.002697,-0.000601,0.004489,0.990634,0.0000,0.0000
9.600000,0.019956,-0.006287,0.000827,-0.002622,-0.000222,0.995474,0.0000,0.0000
9.610000,0.024814,-0.011748,-0.008155,-0.011485,0.002937,1.002146,0.0000,0.0000
9.620000,0.017689,-0.016241,-0.000731,-0.007935,-0.006427,1.000126,0.0000,0.0000
9.630000,0.016247,-0.008434,-0.003619,-0.004322,-0.002227,1.014169,0.0000,0.0000
9.640000,0.027720,-0.005398,-0.003604,0.000192,0.008947,1.007882,0.0000,0.0000
9.650000,0.012030,-0.010194,-0.003619,0.007342,0.006245,0.995002,0.0000,0.0000
9.660000,0.030486,-0.011254,0.011955,-0.001472,-0.000828,1.018332,0.0000,0.0000
9.670000,0.017424,-0.012184,0.007221,-0.000226,0.004681,0.988109,0.0000,0.0000
9.680000,0.028755,-0.005220,0.001748,0.006911,-0.004893,0.995620,0.0000,0.0000
9.690000,0.012311,-0.008157,0.006054,0.008338,0.009001,1.006936,0.0000,0.0000
9.700000,0.015497,-0.016153,0.003138,0.001743,0.009649,0.997533,0.0000,0.0000
9.710000,0.015686,-0.007796,-0.002724,-0.015494,-0.005953,0.991783,0.0000,0.0000
9.720000,0.014547,-0.012547,0.004645,0.022596,0.016914,0.996204,0.0000,0.0000
9.730000,0.025591,-0.010261,0.001970,-0.006287,-0.000724,0.984173,0.0000,0.0000
9.740000,0.028770,-0.013563,0.002865,-0.005428,0.002647,0.988955,0.0000,0.0000
9.750000,0.018166,-0.005571,0.002908,-0.018335,0.008336,0.987675,0.0000,0.0000
9.760000,0.021396,-0.007448,-0.003141,-0.002860,-0.002406,1.003979,0.0000,0.0000
9.770000,0.024475,-0.003435,0.001599,0.019142,-0.009267,1.017088,0.0000,0.0000
9.780000,0.018719,-0.006268,-0.000616,0.000957,-0.008985,1.003852,0.0000,0.0000
9.790000,0.029911,-0.009211,-0.000103,0.000206,0.006980,0.998225,0.0000,0.0000
9.800000,0.019979,-0.008891,0.006376,0.009209,-0.010305,0.994165,0.0000,0.0000
9.810000,0.020099,-0.005891,0.004740,-0.001803,0.020823,0.998618,0.0000,0.0000
9.820000,0.026881,-0.003152,0.007810,0.002076,0.005640,0.985647,0.0000,0.0000
9.830000,0.011290,-0.012817,0.003521,0.010277,-0.001004,1.010044,0.0000,0.0000
9.840000,0.022830,-0.002679,-0.007790,-0.007707,-0.009366,0.990246,0.0000,0.0000
9.850000,0.028069,-0.014311,-0.004057,-0.003618,0.008658,0.995782,0.0000,0.0000
9.860000,0.023607,-0.007305,-0.003132,-0.022280,-0.008983,0.988315,0.0000,0.0000
9.870000,0.028009,-0.013328,-0.005242,0.003741,0.000529,0.991272,0.0000,0.0000
9.880000,0.025362,-0.005575,0.001368,-0.007041,-0.008549,0.980685,0.0000,0.0000
9.890000,0.021878,-0.008059,-0.004507,0.000396,0.032119,0.989434,0.0000,0.0000
9.900000,0.011637,-0.007026,-0.002088,-0.004545,0.006096,0.998908,0.0000,0.0000
9.910000,0.024874,-0.007477,0.005688,0.001280,-0.021148,1.013040,0.0000,0.0000
9.920000,0.011663,-0.004973,0.001235,-0.013054,0.000653,1.008503,0.0000,0.0000
9.930000,0.014994,-0.009732,-0.003619,-0.009403,-0.006051,1.012251,0.0000,0.0000
9.940000,0.023363,-0.010073,-0.000399,0.001337,0.002808,1.001877,0.0000,0.0000
9.950000,0.011579,-0.005567,-0.004197,-0.024625,0.006899,0.988655,0.0000,0.0000
9.960000,0.019305,-0.010384,-0.002897,0.005205,-0.002672,0.997469,0.0000,0.0000
9.970000,0.015318,-0.011275,-0.005084,0.000513,0.012988,1.009710,0.0000,0.0000
9.980000,0.022101,-0.016417,0.005049,0.008993,0.020240,0.978717,0.0000,0.0000
9.990000,0.020082,-0.011528,0.005342,-0.010226,-0.003733,1.022167,0.0000,0.0000
